57 100
sent_0 0.139520 -0.012604 0.027738 -0.094421 -0.109986 0.175542 -0.058475 -0.004044 0.028125 0.078297 0.035279 -0.020728 0.097772 -0.033701 0.040641 -0.135846 -0.012573 0.050585 -0.042976 -0.009232 0.014942 0.041061 -0.037866 0.046611 0.058225 0.202811 -0.013971 0.028166 -0.140437 -0.090770 -0.050307 0.076637 0.026758 0.089196 0.071842 0.033379 -0.061231 0.121851 0.044111 -0.051517 0.039566 -0.155318 -0.122912 0.120025 -0.018447 0.082396 -0.003788 -0.061590 -0.041588 -0.008265 -0.016574 -0.104922 0.101672 0.135058 -0.119610 0.000828 -0.072489 0.121920 0.046316 0.116945 -0.024951 0.032507 -0.012051 -0.089060 0.023691 -0.053660 -0.015329 -0.082772 -0.023056 0.060129 -0.117033 0.027109 0.013595 0.080595 0.035857 0.053895 -0.006175 0.011966 0.052681 -0.057753 -0.005574 0.043491 -0.018484 -0.137654 -0.053444 0.078896 0.085996 -0.119405 -0.024985 -0.010493 0.016998 -0.071002 -0.022791 -0.041304 0.040766 -0.015926 -0.018007 0.069467 -0.063606 0.021371
sent_1 0.089384 -0.056266 0.004628 0.009575 -0.022491 0.063977 0.034578 -0.019434 -0.019353 0.083346 -0.043090 -0.088032 0.042883 0.024427 -0.059448 -0.050848 0.005131 0.018559 -0.086993 -0.002881 0.037154 0.034247 -0.010428 -0.011272 0.022421 0.058550 0.085253 -0.012215 0.006413 -0.029426 -0.014155 0.058750 -0.039137 0.016460 0.057866 0.019854 -0.000224 0.017635 0.030503 -0.042632 0.052023 -0.003125 -0.045415 0.046314 -0.009970 0.071399 -0.048878 -0.016035 0.000659 -0.026356 -0.021709 -0.047760 0.036575 0.022625 0.009177 -0.007188 -0.039235 -0.017835 0.047694 0.122801 -0.053030 0.052109 -0.087920 -0.063287 0.111549 0.051799 -0.039656 -0.068515 0.056728 0.048329 -0.040831 0.005869 -0.047794 -0.052696 0.059301 0.003742 -0.012868 -0.031458 -0.052915 -0.037845 -0.030206 0.003134 -0.044403 -0.056195 0.024832 0.069933 0.089196 -0.037494 -0.075209 -0.013339 -0.001035 -0.069483 0.069548 -0.031150 -0.026609 0.035889 -0.019611 0.055394 0.042476 0.097103
sent_2 0.031705 -0.015685 -0.026520 0.042542 -0.071324 0.085708 0.004492 -0.011277 -0.032548 0.088558 -0.005283 -0.161074 -0.006539 0.076375 -0.030890 -0.026911 -0.141586 -0.006488 -0.106201 -0.046658 0.093083 0.092606 0.061815 0.051872 0.045931 0.001604 0.168780 -0.004904 -0.019252 0.110752 -0.077045 0.136732 0.048415 -0.039985 0.031643 0.055854 -0.003028 0.080616 0.101832 -0.075066 0.070427 -0.001164 -0.079902 0.009658 0.048674 0.057718 0.001346 0.028105 -0.040878 -0.095879 -0.021428 -0.100115 0.056967 0.063667 0.018948 0.028906 -0.035270 -0.091440 -0.044489 0.109694 -0.028083 0.053749 -0.112858 -0.026409 0.167317 0.067581 -0.057642 -0.059435 0.033137 0.006656 -0.084525 0.025499 0.030569 -0.067340 0.076834 -0.035153 0.047623 0.011185 -0.044105 -0.026582 0.039891 0.053927 -0.006596 -0.130694 -0.012262 0.132746 0.111999 -0.035789 0.018338 0.040945 -0.026590 0.043340 0.087218 -0.005029 -0.109018 0.056281 -0.021988 0.070858 0.055308 0.155706
sent_3 0.104501 -0.034683 -0.020016 0.017874 -0.068674 0.115424 0.010740 0.014726 -0.051247 0.137029 0.001327 -0.143397 -0.034972 0.052418 -0.014255 -0.091372 -0.196774 0.020247 -0.128093 -0.048454 0.100346 0.087625 0.043642 0.061855 0.056603 0.070029 0.138986 0.011269 -0.090581 0.128626 -0.071782 0.220785 0.051954 -0.045586 0.092783 0.065360 0.031105 0.131890 0.150993 -0.094434 0.087945 -0.051942 -0.143978 0.017487 0.010425 0.077913 0.004364 -0.013127 0.006076 -0.117783 -0.001614 -0.087655 0.070759 0.097225 -0.017479 0.024327 -0.060583 -0.080991 -0.013680 0.130744 -0.036783 0.092915 -0.134205 -0.049766 0.238035 0.173916 -0.054690 -0.087559 -0.012622 0.036952 -0.097995 0.024900 0.050718 -0.064375 0.067791 -0.062344 0.087136 0.012604 -0.005886 -0.034812 0.043036 0.126899 -0.065815 -0.097984 -0.034938 0.145567 0.113254 -0.032905 0.028809 0.035278 -0.022829 0.049393 0.054431 -0.021038 -0.067374 0.077152 0.033925 0.055731 0.061526 0.184886
sent_4 0.060311 -0.005218 -0.085903 0.062997 -0.021035 0.220056 0.003222 -0.072036 -0.089913 0.123997 -0.045622 -0.217122 -0.016534 0.044413 -0.005987 -0.040441 -0.125572 0.036843 -0.015583 0.036869 0.041531 0.135976 0.036874 0.056876 0.109196 0.028297 0.134317 0.030699 0.012790 0.004965 -0.002090 -0.038403 0.064697 0.030076 0.118578 0.037431 -0.051918 0.086744 0.108397 -0.085160 0.037429 -0.059464 -0.147810 0.000143 0.022738 0.171327 -0.072157 0.106979 -0.104446 -0.064789 0.091704 -0.150346 0.107495 0.122678 0.069222 -0.040344 0.029119 -0.000562 0.036477 0.188152 -0.008763 0.061534 -0.189231 -0.098054 0.210184 0.096250 -0.080656 -0.113042 -0.000862 0.047036 -0.075105 0.062771 -0.010997 -0.062718 0.099884 -0.025868 0.047530 0.045085 -0.130981 -0.138967 -0.047482 -0.040281 0.010177 -0.136461 -0.050867 0.074568 0.155500 -0.141037 -0.118279 0.042909 -0.110153 -0.009514 0.150455 -0.038519 -0.058242 0.134306 -0.078442 0.101247 0.105777 0.111587
sent_5 0.032063 0.001038 -0.036528 0.032815 -0.040334 0.050321 0.008661 0.007378 -0.017732 0.055510 0.013335 -0.041565 -0.030720 0.013652 0.010680 -0.021636 -0.106127 -0.013509 -0.036795 0.006638 0.034452 0.044337 0.030195 0.052689 0.025368 -0.021310 0.058121 0.025786 -0.044699 0.044641 0.005552 0.039719 0.038693 -0.026915 0.067886 0.033610 0.023489 0.056977 0.051578 -0.035112 0.009445 -0.043994 -0.091358 -0.032890 0.021745 0.031469 -0.000628 0.032520 -0.019720 -0.032983 0.003311 -0.028686 0.037208 0.048368 -0.013185 -0.004728 -0.029099 -0.040239 -0.015533 0.041437 -0.027181 0.056856 -0.092432 -0.015707 0.065281 0.068676 -0.033175 -0.031161 -0.011775 0.027926 -0.061276 0.044219 0.038707 -0.009085 0.042180 -0.027979 0.056644 0.016258 -0.012993 -0.021102 0.035393 0.042101 -0.030289 -0.044104 -0.035888 0.037170 0.049480 -0.031314 -0.005689 0.051834 -0.040996 0.022211 0.038581 -0.013444 -0.014686 0.018962 -0.038386 0.021664 0.035270 0.049157
sent_6 0.018101 -0.017384 0.008414 -0.003699 -0.023452 -0.000412 0.021774 -0.013098 -0.017265 0.032650 0.004046 -0.027911 -0.002988 0.018858 -0.015896 0.003756 -0.029828 0.004357 -0.037754 -0.011401 0.016103 0.004308 -0.000162 -0.002184 0.005687 0.012886 0.033808 -0.009185 -0.005055 0.029315 -0.046311 0.068570 0.014348 -0.009708 -0.012389 0.009855 -0.013261 0.026738 0.021773 -0.012468 0.007118 -0.003016 -0.003907 0.013570 -0.001603 0.003656 0.017329 -0.008067 0.012337 -0.022965 -0.034566 -0.021087 0.003031 0.020801 -0.002938 0.027369 -0.014790 -0.025197 -0.020751 0.013218 -0.018767 0.025208 -0.011627 -0.016451 0.042354 0.020988 -0.012370 -0.008139 0.015032 0.007062 0.001059 0.006319 -0.002262 -0.046879 0.014563 -0.009039 0.002958 -0.019653 0.007592 0.002907 -0.000135 0.003009 -0.018152 -0.035249 0.008255 0.025579 0.026712 0.027323 -0.000668 -0.004383 0.006144 -0.006721 0.024061 -0.008365 -0.043004 -0.010138 0.010031 0.011038 -0.006939 0.056489
sent_7 0.073722 -0.002832 -0.053401 0.048543 -0.055074 0.191186 -0.022586 -0.001236 -0.069152 0.122239 -0.015153 -0.177838 -0.040233 0.046948 0.026271 -0.072954 -0.199992 0.027478 -0.088999 -0.027720 0.079797 0.152333 0.079349 0.093034 0.101228 0.045083 0.173998 0.018620 -0.083419 0.137304 -0.009470 0.128892 0.056158 -0.042973 0.148873 0.062968 0.063321 0.123898 0.161709 -0.121535 0.118928 -0.037114 -0.173493 -0.010573 0.052164 0.115504 -0.019893 0.016329 -0.070962 -0.101626 0.126377 -0.154758 0.118031 0.150405 -0.001174 -0.038875 -0.072078 -0.061369 0.018784 0.152991 0.014418 0.060465 -0.198586 -0.084297 0.276473 0.162543 -0.053788 -0.113455 -0.036793 -0.006313 -0.112441 0.019097 0.087451 -0.011571 0.058782 -0.092609 0.085513 0.038009 -0.072132 -0.036648 0.045336 0.111632 -0.046035 -0.058027 -0.077677 0.156205 0.152926 -0.121765 0.012422 0.032974 -0.050046 0.095970 0.107886 -0.007690 -0.062826 0.149630 -0.019150 0.054123 0.078293 0.110804
sent_8 0.153717 -0.045730 -0.053578 0.048593 -0.089586 0.187904 -0.009014 0.052663 -0.044562 0.165387 -0.017866 -0.135322 -0.009565 -0.001461 -0.012713 -0.085474 -0.206051 0.050428 -0.090622 0.001028 0.057782 0.098166 0.044781 0.118035 0.100462 0.062114 0.168292 0.025421 -0.096356 0.077745 0.028113 0.155761 0.032642 -0.030025 0.178765 0.061671 0.053694 0.158139 0.176653 -0.104168 0.083064 -0.096587 -0.227485 -0.020398 0.075187 0.122381 0.011434 0.021972 -0.073708 -0.078460 0.121330 -0.141018 0.116478 0.177957 -0.039327 -0.055016 -0.113533 -0.017467 0.056339 0.168544 -0.016574 0.109499 -0.230316 -0.095830 0.261438 0.185784 -0.075453 -0.131768 -0.045228 0.095712 -0.124900 0.030255 0.096709 -0.006910 0.043388 -0.090498 0.089331 0.023125 -0.039926 -0.035668 0.032687 0.090575 -0.111765 -0.046199 -0.096715 0.160465 0.145233 -0.154978 -0.040874 0.015315 -0.073067 0.054196 0.107771 -0.039728 -0.034064 0.133416 -0.051112 0.029099 0.068455 0.089384
sent_9 0.018792 -0.000929 -0.005956 0.003107 -0.015049 0.040600 0.021597 0.016080 -0.009386 0.031350 -0.012073 -0.025040 -0.010648 -0.013860 -0.004663 -0.011246 -0.034632 0.033743 -0.015954 -0.011462 0.007413 0.015738 0.000292 0.026915 0.019463 -0.003852 0.042202 0.006879 -0.015026 0.016428 0.012147 0.014236 -0.010460 -0.003702 0.045147 0.001099 0.009638 0.032571 0.038406 -0.020061 0.026295 -0.003210 -0.037344 -0.009359 0.028102 0.014914 0.013054 -0.000337 -0.012034 -0.010728 0.029497 -0.022821 0.024603 0.048871 -0.004295 -0.029791 -0.034875 0.002765 0.021017 0.033189 -0.003797 0.025856 -0.060916 -0.019238 0.048559 0.036233 -0.005602 -0.025676 -0.007771 0.005375 -0.010862 -0.003962 0.032883 -0.005436 0.009650 -0.026829 0.015157 -0.005182 0.003825 0.000242 -0.001698 -0.002283 -0.025753 0.021761 -0.010823 0.022536 0.031719 -0.029518 -0.007814 -0.007685 -0.019480 0.011801 0.031390 -0.009993 -0.001782 0.035231 -0.026344 0.002435 0.011798 0.009299
sent_10 0.114012 -0.070821 0.007172 -0.001860 -0.044244 0.179120 0.057078 0.045898 -0.028462 0.150988 -0.097347 -0.178385 0.004690 -0.012420 -0.076403 -0.110117 -0.101744 0.086084 -0.128848 -0.045889 0.092253 0.103901 0.021777 0.065154 0.073442 0.026016 0.205421 -0.010605 -0.021865 0.070217 -0.002202 0.086665 -0.058245 0.009451 0.157777 0.009790 0.040153 0.068536 0.123815 -0.118188 0.138498 0.048939 -0.111274 0.029909 0.057038 0.055751 -0.010010 -0.012968 -0.010348 -0.095799 0.030740 -0.077470 0.084891 0.124972 0.043170 -0.059729 -0.103715 -0.031425 0.093027 0.202306 -0.062780 0.096172 -0.232034 -0.087651 0.219148 0.154800 -0.043928 -0.155781 0.034794 0.016141 -0.071716 -0.057776 0.046497 -0.062206 0.091989 -0.055568 0.033973 -0.041939 -0.007514 -0.042670 0.009508 0.035218 -0.071552 0.034402 0.014187 0.157354 0.156567 -0.103322 -0.055430 -0.021573 -0.082335 0.009401 0.126409 -0.052801 -0.036501 0.099766 -0.056224 0.078370 0.099689 0.152498
sent_11 0.046848 -0.024138 -0.022404 0.018490 -0.022570 0.116330 0.047508 0.066431 0.000959 0.089485 -0.069923 -0.089613 -0.018623 -0.021310 -0.040781 -0.053274 -0.096733 0.039560 -0.070788 -0.042052 0.066903 0.071895 0.035572 0.059689 0.034804 -0.045587 0.142469 0.016901 -0.021678 0.064539 0.039868 0.020922 -0.046900 -0.019466 0.139154 -0.006090 0.078315 0.030232 0.086798 -0.079400 0.095597 0.052692 -0.087606 -0.032915 0.070084 0.015995 -0.007875 0.012937 -0.011262 -0.061285 0.037194 -0.023375 0.063292 0.065361 0.036644 -0.072411 -0.081003 -0.050988 0.059941 0.113602 -0.047748 0.067130 -0.197086 -0.027126 0.116688 0.127049 -0.014128 -0.091006 0.013661 -0.007521 -0.054108 -0.039781 0.059078 -0.021445 0.070711 -0.043615 0.050302 -0.010404 0.003094 -0.005222 0.044788 0.041987 -0.050541 0.080843 0.005462 0.086724 0.092969 -0.065280 -0.012766 0.015663 -0.076850 0.034583 0.084195 -0.028469 0.003329 0.076484 -0.067999 0.040820 0.095467 0.072187
sent_12 0.003768 -0.008610 0.003887 0.010620 -0.012851 -0.008847 0.007824 0.005526 -0.005842 0.014324 -0.003268 -0.018640 -0.003314 0.009243 -0.019550 0.008710 -0.007830 0.001618 -0.018923 -0.009430 0.012158 0.002005 0.006127 0.000771 -0.003102 -0.012055 0.025308 -0.004104 0.005352 0.016406 -0.012412 0.022954 -0.008753 -0.005387 -0.009099 -0.000445 0.005978 0.003158 0.005351 -0.008613 0.007981 0.007874 0.001134 0.003895 0.015759 0.002551 0.007386 0.006099 -0.000418 -0.011347 -0.012991 -0.002774 -0.001230 -0.000365 0.004261 0.008592 -0.011422 -0.020854 -0.004588 0.005100 -0.015494 0.010157 -0.010845 -0.002855 0.015820 0.008049 -0.005909 -0.003116 0.010642 0.008871 0.000139 0.000511 -0.006458 -0.018446 0.006604 -0.008834 -0.001755 -0.008743 -0.010233 0.003710 0.002910 0.000099 -0.008148 -0.013686 0.009220 0.015360 0.009026 0.002854 -0.006451 -0.000133 0.005624 0.005119 0.014758 0.001791 -0.022467 0.006580 -0.004171 0.007090 0.006293 0.018696
sent_13 0.074471 -0.035481 -0.001542 -0.000683 -0.068546 0.081456 0.020582 0.074449 0.003860 0.087422 -0.025908 -0.051095 0.008996 -0.037731 -0.052569 -0.037167 -0.070846 0.047876 -0.070886 -0.032739 0.037977 0.031479 0.011357 0.062580 0.033498 0.001044 0.117612 0.000021 -0.032873 0.030137 0.026333 0.074057 -0.034600 -0.002051 0.089777 0.003706 0.039850 0.068731 0.084292 -0.050198 0.069486 -0.007361 -0.084567 -0.003144 0.084906 0.022978 0.040830 0.001549 -0.031703 -0.034789 0.040432 -0.059146 0.064229 0.097793 -0.017979 -0.051152 -0.106499 -0.001309 0.059784 0.090774 -0.035952 0.058140 -0.134220 -0.054623 0.102323 0.066520 -0.026246 -0.067881 -0.000596 0.044524 -0.043643 -0.028025 0.065928 0.001574 0.016431 -0.040912 0.025704 -0.012877 0.025915 0.001136 0.014544 0.027755 -0.076938 0.030435 -0.016445 0.093218 0.074801 -0.080135 -0.029934 -0.031677 -0.041862 0.024293 0.068411 -0.030208 -0.022726 0.056616 -0.053772 0.015227 0.024417 0.031573
sent_14 0.036416 -0.028196 0.015077 -0.001912 -0.034583 0.021705 0.020678 -0.007179 -0.024361 0.045752 0.006067 -0.041776 0.001684 0.007355 -0.019322 0.002577 -0.036969 0.032424 -0.043488 -0.009842 0.008751 0.004042 -0.001657 0.008558 0.018313 0.031610 0.049310 -0.014368 -0.014160 0.026164 -0.040751 0.077814 0.010994 0.000513 0.006479 0.014338 -0.020563 0.051162 0.040806 -0.011836 0.018191 -0.015885 -0.021058 0.015410 0.011437 0.026130 0.037359 -0.001658 -0.005199 -0.022725 -0.006792 -0.047235 0.012716 0.060244 -0.018096 0.017511 -0.035686 -0.006067 -0.007266 0.029431 -0.017131 0.034953 -0.026891 -0.045260 0.068698 0.021338 -0.028031 -0.024426 -0.000524 0.022241 -0.008403 0.004487 0.013960 -0.049051 0.004034 -0.026777 0.011036 -0.014768 0.002829 -0.004202 -0.009821 -0.009998 -0.036089 -0.031510 -0.003027 0.035205 0.046540 0.005285 -0.019589 -0.023767 0.001398 -0.010217 0.039685 -0.017503 -0.041005 0.009878 0.000580 0.001687 -0.014438 0.054522
sent_15 -0.006481 0.021620 -0.036627 0.037818 -0.025997 0.078513 0.020140 0.026226 -0.023110 0.045289 -0.018563 -0.043750 -0.039903 -0.016364 0.011909 0.001166 -0.100405 0.013738 -0.003491 0.001775 0.023140 0.063271 0.035422 0.053779 0.034170 -0.070056 0.073846 0.030569 -0.017419 0.044650 0.043434 -0.035769 0.010841 -0.020449 0.087032 -0.002611 0.028778 0.034339 0.053610 -0.034521 0.026129 0.006851 -0.080232 -0.066386 0.063408 0.026256 0.005216 0.054451 -0.042506 -0.017679 0.054715 -0.025433 0.050278 0.069248 0.032624 -0.049343 -0.031406 -0.030331 0.010282 0.047697 -0.013304 0.043689 -0.135837 -0.006985 0.058711 0.064254 -0.012028 -0.033785 -0.022645 -0.002631 -0.032164 0.009634 0.053661 -0.006202 0.041190 -0.038462 0.059295 0.016835 -0.019550 -0.020988 0.028083 -0.000004 -0.022459 0.027097 -0.031417 0.013783 0.055627 -0.043601 -0.009467 0.038088 -0.077710 0.044293 0.063266 -0.009501 0.002027 0.053243 -0.074322 0.016943 0.061970 0.015765
sent_16 0.065545 -0.065134 0.023019 -0.008344 -0.039667 0.014165 0.064792 0.020099 -0.030259 0.073606 -0.022087 -0.044994 0.000691 -0.007023 -0.058258 -0.026030 -0.027420 0.050002 -0.075165 -0.023604 0.027672 -0.010465 -0.015014 0.001596 0.008593 0.035592 0.073196 -0.021546 0.000993 0.019601 -0.023947 0.108839 -0.031077 -0.006406 0.019126 -0.001204 -0.012460 0.056493 0.046160 -0.019111 0.040736 -0.004934 -0.023276 0.024474 0.016296 0.021998 0.038403 -0.018125 0.033897 -0.027880 -0.032434 -0.025195 0.013593 0.062413 0.001037 0.006246 -0.058465 -0.012220 0.017055 0.050858 -0.050780 0.059076 -0.069841 -0.044651 0.103997 0.070663 -0.021976 -0.023940 0.027338 0.053589 0.006211 -0.009577 0.001323 -0.086890 0.029356 -0.034595 -0.006141 -0.044852 0.017698 -0.002674 -0.029411 -0.010274 -0.084511 -0.007344 0.023357 0.050345 0.045192 0.015575 -0.037125 -0.043761 0.002627 -0.026593 0.046103 -0.018595 -0.044898 0.018369 0.004012 0.012094 -0.001953 0.090506
sent_17 0.081407 -0.041810 0.016733 -0.021764 -0.058460 0.068539 0.024180 0.058539 0.001620 0.081905 -0.034286 -0.059800 0.030231 -0.017094 -0.072849 -0.055244 -0.036235 0.046508 -0.095239 -0.052975 0.050246 0.014994 0.002301 0.045015 0.021316 0.044983 0.101260 -0.019656 -0.020122 0.023556 0.009023 0.113835 -0.035746 0.014431 0.070482 0.005813 0.041697 0.051145 0.072394 -0.058457 0.085195 0.006373 -0.055532 0.041197 0.063376 0.021378 0.023244 -0.038785 -0.003411 -0.034326 0.027480 -0.064164 0.062359 0.075432 -0.014833 -0.033592 -0.105319 -0.002774 0.064941 0.094122 -0.039693 0.044402 -0.099058 -0.056753 0.122857 0.065584 -0.024641 -0.070465 0.010775 0.032001 -0.038779 -0.033240 0.040986 -0.011988 0.030328 -0.031025 0.004092 -0.029436 0.021650 0.004130 0.000789 0.047054 -0.073204 0.008680 0.018639 0.111805 0.075307 -0.054878 -0.021718 -0.056925 0.000240 0.009123 0.055568 -0.019261 -0.025620 0.047014 -0.016315 0.026837 0.017489 0.045170
sent_18 0.143385 -0.047924 -0.054123 0.034699 -0.090438 0.104267 0.056577 0.085294 0.006901 0.112370 -0.033864 -0.026614 0.024208 -0.012063 -0.051351 -0.091649 -0.097509 0.004717 -0.106688 -0.010415 0.048603 0.033932 0.005036 0.073645 0.020957 -0.028605 0.133083 0.055914 -0.061311 -0.003539 0.059015 0.061994 -0.022449 -0.031632 0.159718 0.002011 0.066565 0.055737 0.069778 -0.066771 0.040002 -0.066871 -0.159341 -0.031691 0.055331 0.045694 -0.017158 0.025467 -0.005813 -0.042654 -0.038754 -0.001584 0.074410 0.055090 -0.004576 -0.049606 -0.098423 -0.056036 0.039579 0.101107 -0.113370 0.139719 -0.226047 -0.004028 0.048966 0.124404 -0.033979 -0.093401 0.039302 0.107437 -0.107302 0.048495 0.037438 0.000923 0.117024 -0.016106 0.061320 -0.022575 0.012398 -0.041409 0.051102 0.071360 -0.097185 -0.014668 -0.016939 0.076622 0.078743 -0.077854 -0.048212 0.054752 -0.073497 -0.026444 0.044330 -0.043889 0.045124 0.032915 -0.119500 0.080426 0.086013 0.090344
sent_19 0.023614 -0.010572 -0.026853 0.026312 -0.028743 0.020232 0.019089 0.004358 -0.019505 0.033903 -0.007369 -0.047409 0.001161 0.041172 -0.021890 -0.024054 -0.050838 -0.016631 -0.052484 -0.011227 0.042040 0.027447 0.016252 0.018188 0.004103 -0.015411 0.062669 0.007263 -0.001403 0.026493 -0.003849 0.049981 0.011100 -0.025646 0.031868 0.012307 0.018641 0.018396 0.033008 -0.019701 0.016910 -0.022373 -0.046340 -0.008319 0.014554 0.027746 -0.017298 0.012515 -0.001020 -0.028354 -0.027171 -0.014167 0.029167 -0.000861 0.010578 0.003353 -0.009198 -0.046900 -0.014172 0.036611 -0.028527 0.042204 -0.060086 0.006437 0.053040 0.058674 -0.020355 -0.016377 0.025234 0.031478 -0.041421 0.027933 -0.009720 -0.025649 0.047770 -0.010059 0.019810 0.000029 -0.014438 -0.015299 0.006433 0.035678 -0.017338 -0.049782 0.000060 0.030595 0.033910 -0.011359 -0.006282 0.025631 -0.005750 0.002265 0.022911 0.001164 -0.015539 0.022117 -0.017944 0.041146 0.031215 0.070823
sent_20 0.133796 -0.048849 -0.040832 0.034763 -0.126131 0.136217 0.040251 0.100769 0.013836 0.157642 -0.032904 -0.076831 0.036927 -0.043623 -0.102974 -0.040086 -0.122451 0.041782 -0.101986 -0.012211 0.061392 0.055646 0.015641 0.121109 0.050693 -0.028080 0.195440 0.034936 -0.028942 -0.009901 0.072913 0.054510 -0.028672 0.014548 0.166911 0.012846 0.051606 0.100992 0.129541 -0.069240 0.065419 -0.056584 -0.183289 -0.018417 0.142653 0.080543 0.021583 0.052217 -0.083466 -0.020063 0.055792 -0.107687 0.121954 0.134468 -0.007587 -0.097938 -0.153788 -0.006395 0.088931 0.161801 -0.100153 0.114665 -0.248768 -0.074966 0.127360 0.094282 -0.074225 -0.127356 0.029857 0.122352 -0.103887 0.031274 0.068125 0.007746 0.068313 -0.035127 0.061078 -0.001941 -0.007761 -0.032672 0.017936 0.016010 -0.124587 -0.019127 -0.044168 0.135805 0.132028 -0.145539 -0.102025 -0.000574 -0.104919 -0.008423 0.129314 -0.052351 -0.029613 0.084953 -0.166811 0.054496 0.071165 0.042591
sent_21 0.086433 -0.054949 0.014914 0.038589 -0.070767 0.057149 0.030305 -0.043363 -0.065567 0.154973 0.031471 -0.163500 -0.040968 0.036386 -0.032232 0.008719 -0.175118 0.041768 -0.074244 0.022408 0.038317 0.051820 0.039559 0.063014 0.079907 0.063973 0.138613 -0.024341 -0.032170 0.095619 -0.091820 0.175452 0.081307 -0.006039 0.020595 0.093679 -0.059535 0.172560 0.135548 -0.053291 0.012330 -0.067911 -0.118600 0.018889 0.012109 0.095659 0.042817 0.054989 -0.043670 -0.056820 0.018626 -0.136907 0.035867 0.161351 -0.037646 0.051321 -0.071517 -0.028313 -0.030262 0.121137 -0.022047 0.088435 -0.098938 -0.100251 0.220689 0.088718 -0.102682 -0.069855 -0.022730 0.075499 -0.050258 0.051140 0.049336 -0.137326 0.001061 -0.083755 0.053159 -0.005781 -0.048867 -0.043086 -0.010862 -0.006125 -0.086338 -0.124404 -0.049146 0.112386 0.130107 -0.007147 -0.062019 -0.003827 -0.039300 -0.013481 0.123362 -0.040968 -0.145155 0.034930 -0.010957 -0.005363 0.003762 0.153882
sent_22 0.037970 -0.022010 0.010468 -0.006829 -0.011917 0.001994 0.024166 0.001635 -0.002881 0.029849 -0.002039 -0.002943 0.005831 -0.002357 -0.010979 -0.016038 -0.005800 0.006904 -0.027420 -0.001521 0.008319 -0.009516 -0.004911 0.001604 0.003706 0.012305 0.015065 -0.006600 -0.013453 -0.002111 -0.002869 0.032485 -0.010405 0.002340 0.011193 0.004091 -0.000458 0.021180 0.005070 -0.009730 0.009811 -0.011464 -0.019209 0.005615 -0.006174 0.007914 0.007076 -0.004455 0.015288 -0.005177 -0.013991 -0.005441 0.002846 0.016060 -0.012455 0.001551 -0.025443 -0.005554 0.009950 0.019818 -0.017522 0.028937 -0.023823 -0.014325 0.021574 0.015566 -0.007285 -0.011905 0.004601 0.017820 -0.009735 0.003528 0.004244 -0.018854 0.007132 -0.004580 -0.000285 -0.014156 0.008017 0.000449 -0.001632 0.007307 -0.026697 -0.002187 0.008357 0.018465 0.021369 0.001696 -0.021964 -0.005317 0.000777 -0.021595 0.015384 -0.017043 0.000709 -0.010889 -0.002065 0.005025 0.001125 0.023748
sent_23 0.031580 -0.016214 -0.038716 0.034664 -0.041817 0.034467 0.023340 0.008238 -0.008360 0.038561 -0.017337 -0.046966 0.037234 0.029964 -0.049353 -0.013177 -0.008716 -0.026131 -0.059621 -0.002710 0.037090 0.024173 0.010475 0.011891 -0.001748 -0.022425 0.082444 0.008174 0.023817 -0.030619 0.017370 0.011349 -0.015043 -0.009036 0.038890 0.003946 0.003136 0.001418 0.018066 -0.020025 0.023984 -0.012042 -0.039322 0.001201 0.044170 0.051929 -0.023651 0.023199 -0.026448 -0.016178 -0.025224 -0.035913 0.042875 -0.007856 0.024732 -0.020492 -0.018495 -0.037722 0.008583 0.064385 -0.046350 0.032313 -0.085903 -0.004508 0.036870 0.021829 -0.031311 -0.028794 0.063458 0.045112 -0.047642 0.030314 -0.033792 -0.017588 0.068897 0.012351 0.003686 0.001007 -0.043494 -0.029468 -0.012749 0.007770 -0.016593 -0.074680 0.004865 0.036801 0.050969 -0.041721 -0.048524 0.022578 -0.016438 -0.026899 0.045736 -0.007403 -0.023890 0.035808 -0.068297 0.059292 0.038522 0.050292
sent_24 0.042573 -0.022752 0.004650 -0.002018 -0.009111 0.006806 0.029084 -0.003391 -0.019322 0.032144 -0.000878 -0.016973 -0.010701 0.009733 -0.011858 -0.029313 -0.023306 0.009921 -0.035795 -0.008917 0.010436 -0.003475 -0.005498 -0.002062 0.004942 0.036760 0.010657 -0.008002 -0.015407 0.014238 -0.018841 0.064035 0.000296 -0.009018 0.015839 0.013538 -0.001099 0.034002 0.016179 -0.009496 0.006792 -0.017047 -0.023134 0.016846 -0.018899 0.018394 -0.003505 -0.021088 0.025000 -0.014125 -0.018395 -0.002511 0.004006 0.018215 -0.013808 0.015502 -0.012240 -0.005596 0.002475 0.022940 -0.013869 0.031386 -0.020099 -0.021072 0.052371 0.048615 -0.012639 -0.007734 0.002068 0.020046 -0.009432 0.006375 -0.000293 -0.034997 0.018168 -0.019647 0.002608 -0.016567 0.000212 -0.006154 -0.009949 0.025266 -0.034762 -0.014315 0.006454 0.015258 0.018836 0.013564 -0.009789 -0.004653 0.012399 -0.018139 0.005244 -0.010028 -0.007605 -0.002612 0.028296 0.004471 0.003658 0.048657
sent_25 0.031657 0.003922 -0.027720 0.003980 -0.004047 0.071686 -0.002591 0.002295 -0.010844 0.037911 -0.019513 -0.070949 0.001068 0.031792 -0.008680 -0.057993 -0.052590 -0.011431 -0.035903 -0.022179 0.048753 0.053136 0.018018 0.027157 0.019048 0.022696 0.038721 0.017687 -0.021445 0.019597 -0.000708 0.024908 0.023476 0.003891 0.057988 0.021437 0.020311 0.012247 0.037632 -0.048099 0.026619 -0.013482 -0.061515 0.014148 -0.006509 0.043255 -0.050111 -0.004386 -0.007215 -0.040589 0.000880 -0.026472 0.037841 -0.003311 0.021482 -0.008342 0.011295 -0.029677 0.018709 0.070676 -0.010892 0.026480 -0.061756 -0.002093 0.068126 0.061139 -0.020878 -0.044401 0.011906 0.003811 -0.057770 0.017933 -0.003043 0.002734 0.054605 0.009757 0.022275 0.010125 -0.016747 -0.042600 0.009626 0.054728 0.009867 -0.048648 0.003237 0.043748 0.041823 -0.037428 0.003481 0.033349 -0.017097 0.008925 0.009290 -0.005441 0.008539 0.037160 0.002574 0.050001 0.057661 0.061872
sent_26 0.044736 -0.039831 -0.015118 -0.003103 0.003979 0.106068 0.027644 0.027994 -0.057689 0.108871 -0.052973 -0.155390 -0.056892 0.026282 -0.046999 -0.059817 -0.135542 0.055416 -0.074961 -0.062189 0.069618 0.075976 0.035791 0.049369 0.057535 0.040832 0.129758 -0.013064 -0.020875 0.122133 -0.015247 0.142731 0.014676 -0.016943 0.067324 0.024003 0.043358 0.072318 0.122154 -0.078564 0.097466 0.027883 -0.072386 0.007675 0.027485 0.053199 -0.003901 -0.011168 0.006691 -0.105530 0.072903 -0.076095 0.054455 0.087472 0.036481 -0.014341 -0.041126 -0.048567 0.044048 0.111360 -0.001920 0.044549 -0.120074 -0.056968 0.240937 0.163563 -0.031951 -0.081155 -0.017098 -0.005637 -0.020482 -0.034410 0.051636 -0.070701 0.028697 -0.081209 0.039524 -0.009987 -0.011340 -0.031948 0.001631 0.063863 -0.051766 0.004336 0.009879 0.120763 0.080545 -0.030121 0.013169 -0.040130 -0.033066 0.075725 0.076373 -0.002181 -0.065657 0.113398 0.045726 0.027404 0.064946 0.123002
sent_27 0.060265 -0.026480 -0.001398 -0.020072 -0.030407 0.046784 0.025224 0.047375 0.000243 0.054269 -0.019155 -0.030070 0.014009 0.000132 -0.044646 -0.052184 -0.030503 0.020140 -0.058658 -0.035643 0.027058 0.009286 -0.002841 0.029429 0.003660 0.032551 0.058502 -0.002849 -0.019245 0.013076 0.010560 0.075483 -0.017204 0.005374 0.042889 0.004576 0.019185 0.030927 0.050468 -0.033834 0.033801 -0.020957 -0.045563 0.027857 0.032488 0.018739 0.006490 -0.018469 0.000577 -0.033665 -0.000243 -0.021524 0.042640 0.032046 -0.000951 -0.010844 -0.056317 -0.007174 0.034584 0.061861 -0.031554 0.038670 -0.066205 -0.023900 0.059449 0.059681 -0.010430 -0.043070 0.012101 0.026546 -0.034799 -0.008973 0.023554 -0.005084 0.029628 -0.017436 0.003508 -0.017734 0.022991 -0.012994 0.001909 0.035728 -0.044511 -0.008026 0.018908 0.062723 0.034010 -0.032988 -0.010323 -0.019397 -0.008661 0.004457 0.017454 -0.017705 -0.001790 0.027089 -0.012507 0.024249 0.023482 0.040202
sent_28 0.022074 -0.016899 0.009446 -0.010872 -0.007607 0.014120 0.014904 0.007386 0.005335 0.016152 -0.017707 -0.006215 0.006884 -0.012338 -0.018991 -0.017826 0.000221 0.019767 -0.024057 -0.006213 0.011809 0.002029 -0.011206 0.000062 -0.003746 0.014190 0.023293 -0.001859 -0.004149 -0.010152 0.006361 0.015854 -0.019254 0.001961 0.015757 -0.005334 0.006576 0.005102 0.015083 -0.014397 0.019012 0.006242 -0.009405 0.007321 0.009970 0.009518 -0.003747 -0.006507 0.003799 -0.002913 -0.004069 0.000491 0.008332 0.006683 0.001488 -0.014348 -0.021333 0.006853 0.023511 0.019690 -0.014121 0.020493 -0.022947 -0.014738 0.021954 0.024831 0.000452 -0.014652 0.012668 0.011799 -0.007554 -0.005333 -0.001997 -0.011904 0.013344 -0.000962 -0.007695 -0.009889 0.004692 -0.000592 -0.001249 0.003297 -0.022803 0.012464 0.010988 0.013222 0.016792 -0.002809 -0.014692 -0.016833 -0.000678 -0.014760 0.005609 -0.005555 0.000142 0.011014 -0.005926 0.005101 0.005868 0.010233
sent_29 0.063329 0.000582 -0.021050 0.043712 -0.060743 0.135063 0.032549 0.047679 -0.010067 0.124374 -0.021626 -0.072965 -0.047396 -0.057261 -0.011876 -0.000780 -0.158606 0.059774 -0.013991 0.029962 0.022315 0.084688 0.035410 0.103674 0.081205 -0.065133 0.128470 0.040720 -0.053057 0.049974 0.059587 -0.041952 0.012167 -0.002501 0.159500 0.036380 0.036981 0.108580 0.116189 -0.062180 0.034626 -0.023423 -0.160600 -0.074463 0.091317 0.054353 0.016494 0.092891 -0.072198 0.001291 0.089560 -0.073742 0.071135 0.155988 -0.009930 -0.079443 -0.107210 -0.014246 0.045028 0.111579 -0.035013 0.100087 -0.226976 -0.063411 0.106770 0.089004 -0.055407 -0.098172 -0.045756 0.043028 -0.077087 0.020790 0.114923 -0.005378 0.031608 -0.073207 0.092053 0.007863 -0.014117 -0.030237 0.042928 -0.020819 -0.076195 0.057305 -0.072954 0.064392 0.112923 -0.094106 -0.064959 0.037508 -0.133901 0.017713 0.127850 -0.050234 -0.002709 0.060019 -0.148520 0.001955 0.073171 0.008347
sent_30 0.077464 -0.051912 0.017763 -0.006292 -0.028504 0.014340 0.041883 0.022597 0.010312 0.056681 -0.018360 -0.013683 0.022965 -0.011978 -0.036500 -0.037514 -0.010228 0.024587 -0.065636 -0.007678 0.013369 -0.004539 -0.015049 0.000690 0.002166 0.024632 0.050920 -0.010838 -0.014299 -0.003007 -0.007788 0.065528 -0.034419 0.002568 0.036293 0.005406 0.017337 0.021829 0.021236 -0.023178 0.032413 -0.003457 -0.032316 0.019754 0.003320 0.006951 0.001848 -0.024895 0.028337 -0.013805 -0.043544 0.004227 0.010114 0.027005 -0.020449 0.000469 -0.052934 -0.012618 0.025343 0.046866 -0.052005 0.058757 -0.060003 -0.024383 0.037378 0.040695 -0.013927 -0.036769 0.020223 0.045637 -0.023383 -0.014171 0.000677 -0.028179 0.026402 -0.005336 0.004530 -0.036222 0.020702 -0.002283 0.004171 0.014111 -0.062939 0.014948 0.020924 0.037157 0.036982 -0.002439 -0.033716 -0.017085 -0.005196 -0.046882 0.020706 -0.022567 0.003595 -0.010563 -0.014023 0.012054 0.014602 0.052328
sent_31 0.020250 0.022623 -0.055641 0.054125 -0.024464 0.108592 -0.000294 0.007918 -0.048244 0.075201 0.002251 -0.082354 -0.070351 0.018053 0.035762 -0.023616 -0.160315 0.005334 -0.007755 0.008014 0.032757 0.092186 0.055242 0.074004 0.061508 -0.036459 0.084486 0.043416 -0.059079 0.086071 0.027988 0.016762 0.052238 -0.046115 0.114414 0.033978 0.040757 0.081127 0.096902 -0.054100 0.032128 -0.040371 -0.134761 -0.062239 0.032092 0.060107 -0.015958 0.060475 -0.046549 -0.049314 0.068722 -0.052182 0.053673 0.087421 0.014459 -0.036979 -0.011617 -0.044304 -0.009544 0.062798 0.008227 0.056253 -0.147196 -0.019510 0.127849 0.115193 -0.034941 -0.056957 -0.044636 0.011472 -0.068554 0.040651 0.065390 -0.009700 0.041911 -0.057872 0.086350 0.039052 -0.039053 -0.039309 0.039805 0.047745 -0.022607 -0.013653 -0.069476 0.046061 0.064714 -0.062678 -0.000343 0.064447 -0.079827 0.059689 0.067548 -0.004490 -0.010731 0.077972 -0.041633 0.025308 0.074826 0.053760
sent_32 0.066542 -0.046028 0.017443 -0.017334 -0.039663 0.051614 0.040980 0.068190 0.015650 0.065913 -0.048685 -0.030693 0.016510 -0.031909 -0.056050 -0.052449 -0.019750 0.032612 -0.089785 -0.045414 0.051659 0.014457 -0.001322 0.025077 0.004457 0.004308 0.095719 -0.003946 -0.014382 0.015885 0.023340 0.055382 -0.068052 0.000558 0.081246 -0.005415 0.054605 0.017138 0.048181 -0.052232 0.076395 0.041232 -0.043009 0.013140 0.054838 0.002692 0.013706 -0.035651 0.008855 -0.025781 0.001007 -0.013725 0.041222 0.047559 0.002344 -0.044245 -0.097484 -0.017188 0.067233 0.085715 -0.049337 0.052708 -0.113211 -0.036037 0.081607 0.069350 -0.003730 -0.063406 0.027394 0.017737 -0.029399 -0.050716 0.036114 -0.009247 0.031080 -0.021940 0.006350 -0.040317 0.027300 0.021033 0.012490 0.030450 -0.062952 0.066802 0.027787 0.079324 0.059075 -0.040003 -0.016287 -0.029563 -0.018351 0.000302 0.045133 -0.027185 -0.005995 0.027743 -0.034033 0.024130 0.038647 0.045021
sent_33 0.108992 -0.061137 0.030302 -0.026985 -0.079951 0.043907 0.036790 0.084711 0.049228 0.087380 -0.031957 -0.007584 0.067348 -0.043828 -0.095280 -0.060491 0.000946 0.034191 -0.087581 -0.030015 0.028583 -0.006898 -0.026753 0.048845 0.008974 0.030314 0.087069 -0.002978 -0.014907 -0.041528 0.037166 0.068907 -0.065474 0.040902 0.080958 0.004078 0.034680 0.039031 0.044473 -0.042161 0.050263 -0.012743 -0.066410 0.045652 0.069320 0.016206 0.007302 -0.027038 -0.006062 0.002687 -0.012249 -0.032581 0.057772 0.051988 -0.031543 -0.044174 -0.119318 0.017560 0.091479 0.102137 -0.077211 0.059762 -0.104219 -0.040242 0.041439 0.029595 -0.028830 -0.081471 0.044696 0.071875 -0.058408 -0.021538 0.021925 0.014542 0.025514 0.003058 -0.004707 -0.032913 0.045389 0.001832 0.004802 0.023268 -0.087833 0.015503 0.021140 0.096090 0.064864 -0.070746 -0.051905 -0.040637 -0.021185 -0.047183 0.041199 -0.045637 0.007190 0.012184 -0.062908 0.022629 0.018702 0.022323
sent_34 0.031728 -0.018441 -0.024667 -0.006087 -0.013848 0.108519 0.052585 0.068486 -0.005661 0.071674 -0.060258 -0.074588 -0.032876 -0.011709 -0.040396 -0.048222 -0.083714 0.046842 -0.046089 -0.053702 0.046295 0.052417 0.013142 0.068013 0.029745 -0.050895 0.111268 0.023056 -0.009800 0.061069 0.044327 0.012571 -0.012361 -0.007231 0.103613 -0.023120 0.044716 0.024562 0.079520 -0.060851 0.060565 0.024969 -0.079866 -0.027196 0.060428 0.004547 -0.005249 0.025925 -0.006724 -0.057480 0.027534 -0.016376 0.062185 0.059511 0.057046 -0.056130 -0.049980 -0.025888 0.056010 0.083881 -0.043665 0.055158 -0.163290 -0.006390 0.085679 0.112780 -0.008870 -0.070005 0.008659 -0.005371 -0.030390 -0.013109 0.060486 -0.017233 0.071663 -0.037064 0.038890 -0.010997 0.022388 -0.032385 0.016399 0.024940 -0.027105 0.056350 0.015386 0.060349 0.053919 -0.054499 -0.001182 0.003375 -0.084014 0.044142 0.062321 -0.012279 0.014084 0.065206 -0.059413 0.049817 0.077927 0.057818
sent_35 0.003954 0.001670 0.000316 -0.004853 0.001973 0.003732 -0.004013 0.002179 -0.004837 0.003503 -0.001711 -0.009281 -0.005779 0.003218 0.001921 -0.007012 -0.003952 0.001417 0.000404 -0.001198 0.002395 0.000932 -0.001729 -0.000600 -0.003561 0.004760 0.004756 0.002817 -0.007304 0.001949 -0.006959 0.012015 0.002835 0.000775 0.002253 0.004324 -0.000452 -0.001061 0.007558 -0.007184 -0.001259 -0.002315 0.002137 0.003979 -0.006502 -0.002385 0.000518 0.000934 -0.001779 -0.001010 -0.002157 -0.000412 0.001548 -0.006150 -0.001101 -0.000065 0.004950 -0.005489 -0.003207 0.000160 0.004113 -0.003503 -0.001348 0.002275 0.009285 0.006862 0.001726 -0.005506 -0.003438 -0.007564 -0.003175 0.006163 -0.004608 -0.003241 -0.002120 0.000593 -0.000726 0.003370 -0.003211 0.001742 -0.000820 0.005639 -0.000404 -0.001284 0.001069 0.006284 -0.002670 0.003083 0.008514 0.008607 0.003457 -0.000692 0.000441 -0.002990 0.000994 0.003467 0.007866 0.002172 0.007523 0.003324
sent_36 0.080213 -0.032231 -0.030340 0.020064 -0.071475 0.067848 0.009891 0.038587 -0.014287 0.090507 -0.001493 -0.070187 0.015077 0.024920 -0.035744 -0.058886 -0.093892 -0.004522 -0.096094 -0.024786 0.053331 0.039197 0.015563 0.050584 0.026817 0.023520 0.103707 0.021855 -0.049880 0.035114 -0.007334 0.102960 0.016170 -0.015592 0.077805 0.031381 0.023373 0.070573 0.080843 -0.059054 0.040948 -0.049649 -0.107284 0.003208 0.040154 0.050948 -0.010628 0.003048 -0.015060 -0.051348 -0.019617 -0.050356 0.064859 0.049597 -0.016633 -0.006151 -0.055129 -0.045199 0.002448 0.087802 -0.055586 0.079699 -0.121225 -0.030052 0.096777 0.087343 -0.047139 -0.070899 0.017933 0.060781 -0.083330 0.035499 0.020850 -0.015988 0.067351 -0.019027 0.048669 -0.001017 -0.003935 -0.026093 0.026913 0.066865 -0.058121 -0.080523 -0.018507 0.090144 0.069641 -0.053509 -0.012335 0.025820 -0.030617 0.005572 0.049400 -0.018407 -0.028662 0.041582 -0.040853 0.054720 0.048755 0.093740
sent_37 -0.003120 0.004074 0.002082 0.001871 -0.002652 0.001751 0.001278 -0.000968 0.000478 0.000818 -0.003165 -0.004994 -0.005040 0.000068 0.002704 -0.000593 -0.008320 -0.003900 0.000415 0.001043 0.001195 0.008413 0.002893 -0.001796 0.008465 0.004183 0.001083 -0.001210 0.003083 0.001071 0.002812 0.004003 -0.002542 -0.002425 0.001429 0.007091 0.001193 -0.000539 0.007032 0.000238 0.003352 0.003176 -0.001370 0.000437 -0.000768 0.001815 -0.003506 -0.000327 -0.004275 0.001308 0.009120 -0.010871 0.001280 0.010143 0.001388 -0.003926 0.000896 -0.002181 -0.003024 0.003986 0.001730 -0.000567 -0.000069 -0.002697 0.010942 -0.001217 -0.003020 -0.003680 -0.002220 -0.002084 -0.002898 0.005466 -0.001628 -0.001664 -0.004894 -0.000915 0.005348 0.005921 -0.006154 0.002994 0.001995 0.002263 0.002117 0.000437 -0.006362 -0.001722 0.005172 -0.004849 -0.001037 -0.001287 -0.001711 0.000091 0.006083 -0.004761 0.000965 0.002805 -0.003031 0.002433 0.005182 0.001755
sent_38 0.016625 -0.000716 -0.008965 0.013496 -0.003621 0.044370 0.015045 -0.000648 -0.023220 0.033776 -0.009428 -0.042404 -0.024733 0.007887 0.007293 -0.017238 -0.058412 0.017600 -0.018839 -0.001340 0.013308 0.030869 0.011081 0.019355 0.026919 -0.002372 0.038844 0.010299 -0.017845 0.041827 0.003503 0.029844 0.013920 -0.013769 0.041950 0.015296 0.010566 0.038250 0.041731 -0.026933 0.017196 -0.005614 -0.041414 -0.011159 0.007521 0.024211 0.001319 0.014318 -0.002253 -0.021297 0.019468 -0.017025 0.020290 0.038972 0.004614 -0.007068 -0.016559 -0.014478 0.002806 0.032115 -0.007878 0.033613 -0.058379 -0.011101 0.059440 0.053866 -0.018221 -0.021794 -0.018954 0.007507 -0.018745 0.006554 0.021886 -0.024800 0.018479 -0.032565 0.030758 0.004364 -0.013874 -0.013381 0.012525 0.015312 -0.016750 0.002241 -0.011430 0.021272 0.032523 -0.010159 -0.001163 0.008885 -0.025185 0.018275 0.034090 -0.003666 -0.005987 0.024576 -0.005703 0.010901 0.029474 0.042370
sent_39 0.004964 0.005295 -0.004744 0.009216 0.000919 0.016363 -0.010640 -0.007178 -0.008622 0.007953 0.006959 -0.019061 -0.011015 0.008620 0.004666 -0.007135 -0.028548 -0.000711 -0.000906 0.001504 0.010361 0.013592 0.012506 0.005761 0.005242 0.003935 0.003030 0.003081 -0.004901 0.022747 -0.005136 0.010515 0.014595 -0.007043 0.010226 0.009125 0.005585 0.014787 0.014253 -0.013029 0.005594 0.000206 -0.016543 -0.004962 -0.002400 0.012769 -0.012317 0.005830 -0.003078 -0.009515 0.014281 -0.008221 0.000035 0.005885 -0.002747 0.002716 0.000765 -0.012740 -0.005574 0.015324 0.014930 0.003640 -0.010725 -0.003019 0.024773 0.013707 -0.011316 -0.010206 -0.007372 -0.004094 -0.010429 0.005699 0.008288 -0.006513 -0.003353 -0.008129 0.009861 0.006095 -0.006654 -0.005823 0.007194 0.018366 0.002722 -0.010555 -0.012543 0.008581 0.013748 -0.006802 0.008880 0.008084 -0.004958 0.015725 0.000094 0.003499 -0.003941 0.013532 0.011310 -0.002848 0.009432 0.015695
sent_40 0.018633 -0.001216 0.000354 0.001548 -0.011349 0.031622 -0.014861 0.002342 -0.010737 0.026037 0.008398 -0.029082 -0.001294 -0.006672 0.005788 -0.001179 -0.034077 0.018114 -0.002279 0.003744 0.000928 0.016193 0.007691 0.018412 0.019438 0.016554 0.025297 -0.001136 -0.019598 0.011355 -0.000679 0.012050 0.008286 0.006276 0.024956 0.014544 -0.001375 0.030549 0.025543 -0.010964 0.009464 -0.020656 -0.036185 0.001234 0.015442 0.030250 0.005574 0.009868 -0.020286 -0.002414 0.029664 -0.042302 0.021433 0.045665 -0.016790 -0.012181 -0.026332 0.006293 0.006035 0.029554 0.012887 0.007566 -0.025851 -0.026877 0.043741 0.012658 -0.013833 -0.021852 -0.015309 0.005551 -0.013515 -0.002450 0.018014 0.001272 -0.006388 -0.014169 0.013979 0.010293 -0.014435 -0.004961 0.004619 0.002986 -0.016740 -0.009234 -0.021529 0.033200 0.032786 -0.032974 -0.013859 -0.005610 -0.012445 0.007404 0.029024 -0.013766 -0.013309 0.022483 -0.004393 -0.000774 -0.002127 0.007729
sent_41 0.016700 -0.013166 -0.028231 0.009523 0.002402 0.099762 0.002752 -0.034526 -0.034247 0.062467 -0.028715 -0.127008 -0.021993 0.042237 0.006388 -0.049751 -0.090771 0.006978 -0.033214 -0.017081 0.051382 0.078071 0.026051 0.026953 0.043515 0.029038 0.072921 0.007505 -0.017323 0.052530 -0.040797 0.034045 0.041332 -0.000735 0.039766 0.028999 -0.011458 0.035476 0.055817 -0.060465 0.032453 -0.008257 -0.061801 0.022080 -0.017545 0.052778 -0.040582 0.026964 -0.013255 -0.069597 -0.002559 -0.049029 0.035661 0.033428 0.039909 0.010210 0.026694 -0.041584 -0.006906 0.094935 -0.005335 0.029668 -0.068874 -0.028130 0.109836 0.071514 -0.031473 -0.056022 0.004214 -0.010337 -0.044495 0.006401 0.004343 -0.045873 0.055841 -0.011357 0.031090 0.015434 -0.033576 -0.057866 0.009904 0.033703 0.024466 -0.067367 -0.003261 0.059297 0.069995 -0.033851 -0.001111 0.037746 -0.044346 0.014367 0.049388 -0.006670 -0.037516 0.048025 0.009999 0.056823 0.059555 0.114581
sent_42 0.027879 -0.005354 -0.032635 0.008933 -0.009028 0.081443 -0.018692 0.036334 -0.008649 0.050384 -0.026371 -0.080668 -0.014308 0.011616 -0.019891 -0.046324 -0.076264 0.002510 -0.027777 -0.029207 0.047564 0.050668 0.017631 0.058840 0.031512 0.010146 0.063704 0.018072 -0.019424 0.044916 0.017403 0.040179 0.021034 -0.003099 0.062491 0.016113 0.034469 0.034295 0.075384 -0.050098 0.040904 -0.013345 -0.078974 -0.000779 0.032145 0.035339 -0.022498 0.013150 -0.034533 -0.051830 0.044887 -0.043876 0.057501 0.033647 0.025868 -0.027855 -0.019792 -0.016830 0.032622 0.080244 -0.003984 0.021543 -0.080325 -0.016032 0.095751 0.073792 -0.024512 -0.054061 -0.003061 0.012867 -0.052580 0.008600 0.033718 0.015274 0.036118 -0.010599 0.038315 0.025629 -0.004576 -0.035757 0.010974 0.052442 -0.003346 -0.020153 -0.012438 0.072733 0.049974 -0.068572 0.008028 0.009585 -0.041047 0.043976 0.027893 -0.003909 -0.008646 0.064258 -0.014802 0.035053 0.060478 0.041887
sent_43 0.089524 -0.041249 -0.043732 0.017179 -0.040043 0.047007 0.041767 0.052069 -0.011897 0.093085 -0.025098 -0.060101 -0.002860 0.043457 -0.049048 -0.087048 -0.089898 -0.010960 -0.096341 -0.033197 0.061972 0.028528 -0.001626 0.047573 -0.001342 0.005009 0.094423 0.025021 -0.041457 0.034844 0.006261 0.121073 0.006821 -0.036417 0.075553 0.024692 0.048145 0.039398 0.064519 -0.053176 0.022484 -0.046773 -0.104749 -0.005844 0.006886 0.035555 -0.028870 -0.004662 0.015438 -0.064658 -0.050208 0.001323 0.041436 -0.000820 0.015920 -0.000199 -0.033571 -0.072147 0.015390 0.080059 -0.068558 0.101586 -0.125111 0.001351 0.084693 0.131334 -0.031964 -0.062167 0.041938 0.075013 -0.077943 0.039158 0.004079 -0.033165 0.093087 -0.015050 0.041517 -0.013768 0.007491 -0.034183 0.025505 0.098373 -0.063400 -0.055383 0.010924 0.075085 0.044644 -0.025285 -0.001051 0.048343 -0.026272 -0.002254 0.020416 -0.016358 0.004834 0.023175 -0.004658 0.063946 0.072301 0.124515
sent_44 0.041254 -0.020459 -0.047182 0.041802 -0.085713 0.063059 0.053576 -0.006975 -0.057926 0.091789 0.000172 -0.094086 -0.019424 0.043703 -0.025468 0.014392 -0.121453 0.016338 -0.067568 -0.005554 0.034537 0.039066 0.020806 0.056100 0.039589 -0.038033 0.132804 0.026388 -0.002477 0.047906 -0.033945 0.076212 0.052347 -0.038486 0.050598 0.009944 -0.029603 0.094139 0.087243 -0.043537 0.015102 -0.060203 -0.100774 -0.042216 0.062990 0.056848 0.050328 0.071046 -0.037593 -0.053179 -0.017061 -0.076050 0.065114 0.103427 0.012236 0.008972 -0.043934 -0.051410 -0.043349 0.060198 -0.063231 0.083823 -0.149737 -0.031763 0.112259 0.079275 -0.054912 -0.032653 0.023393 0.059648 -0.045428 0.068117 0.039232 -0.093305 0.079715 -0.047123 0.050315 -0.005484 -0.029810 -0.044307 -0.002505 -0.021319 -0.053406 -0.111616 -0.027196 0.037701 0.090573 -0.022193 -0.042329 0.031085 -0.050264 0.000059 0.098869 -0.016379 -0.068052 0.048545 -0.097585 0.046612 0.026674 0.101840
sent_45 0.009989 -0.010014 0.000588 0.003253 -0.008522 -0.002011 0.010857 -0.010996 -0.008301 0.020252 -0.001741 -0.014319 -0.001664 0.006337 -0.014419 0.004751 -0.013817 0.006774 -0.014868 -0.002584 0.007348 -0.004091 -0.004751 -0.006405 -0.000427 0.007203 0.026889 -0.011814 0.005716 0.008204 -0.016700 0.031431 0.001384 -0.008288 -0.006634 -0.003272 -0.007298 0.016443 0.008942 -0.002990 0.002581 -0.005861 -0.002579 0.005552 0.007983 0.009678 0.011622 0.002390 0.007315 -0.010768 -0.007380 -0.010510 0.004799 0.013707 -0.002636 0.010715 -0.012764 -0.004970 -0.008614 0.007222 -0.010381 0.009110 -0.010527 -0.015826 0.027291 0.011882 -0.005054 0.001282 0.005551 0.007688 0.003582 0.002651 0.000580 -0.027801 0.002687 -0.012815 -0.001522 -0.012445 -0.000820 -0.003650 -0.007054 -0.004657 -0.015769 -0.016642 0.004173 0.011113 0.017769 0.015422 -0.012057 -0.006748 0.009047 -0.002827 0.022249 0.001442 -0.025958 0.003819 -0.005814 0.006367 -0.006103 0.030474
sent_46 0.076845 -0.016779 -0.023743 0.017167 -0.028828 0.127498 -0.024713 -0.006634 -0.051383 0.105966 0.006269 -0.128196 -0.033546 0.022696 0.018564 -0.070532 -0.152728 0.040721 -0.046996 -0.021018 0.048720 0.083501 0.033464 0.065153 0.070995 0.090417 0.078262 0.012363 -0.073837 0.072424 -0.037830 0.128955 0.063491 -0.011618 0.089538 0.061098 0.009163 0.110531 0.120836 -0.068017 0.062260 -0.066549 -0.128512 0.014021 -0.000767 0.086850 -0.007185 -0.000632 -0.032851 -0.070553 0.063467 -0.098106 0.058822 0.110647 -0.022145 -0.003159 -0.030556 -0.016393 0.015662 0.110022 0.021944 0.057610 -0.098480 -0.059928 0.206053 0.124992 -0.049509 -0.080012 -0.046657 0.027701 -0.069907 0.023532 0.047304 -0.020061 0.021486 -0.047303 0.058592 0.033858 -0.030011 -0.035753 0.012551 0.081966 -0.037734 -0.061596 -0.054673 0.108326 0.090701 -0.067755 0.008469 0.014158 -0.024947 0.050194 0.050591 -0.016261 -0.046332 0.089048 0.038010 0.022883 0.041920 0.097016
sent_47 0.138808 -0.088092 0.003628 -0.028298 -0.026522 0.135137 0.110603 0.130769 0.015334 0.140491 -0.136614 -0.079003 0.014225 -0.055405 -0.113726 -0.119834 -0.038113 0.103225 -0.125676 -0.077742 0.079168 0.038394 -0.024377 0.068936 0.018871 -0.002473 0.169783 0.008693 -0.015554 0.014390 0.087300 0.076244 -0.106741 0.002436 0.186266 -0.046912 0.104803 0.019161 0.102500 -0.100278 0.138300 0.057675 -0.107439 -0.001989 0.074127 0.008537 -0.008018 -0.045387 0.045322 -0.064246 0.011260 0.006439 0.079127 0.066220 0.055062 -0.104822 -0.129881 -0.019889 0.151235 0.160864 -0.107772 0.120489 -0.246606 -0.043385 0.152253 0.204533 0.003915 -0.128909 0.054726 0.057076 -0.035705 -0.072918 0.050488 -0.035691 0.101115 -0.037716 0.021578 -0.057620 0.049608 -0.013276 0.012586 0.059412 -0.118781 0.150147 0.061201 0.112810 0.089838 -0.077935 -0.040481 -0.037892 -0.073865 0.005556 0.066073 -0.042651 0.043653 0.094505 -0.064260 0.063524 0.109251 0.099367
sent_48 -0.003585 0.004823 -0.007555 0.004036 -0.002886 0.007869 0.004373 -0.001323 -0.001814 -0.000640 -0.001755 -0.001679 -0.003971 -0.003719 0.009251 -0.000355 -0.016205 0.000254 -0.004239 0.004307 0.003784 0.010954 0.006076 0.004041 -0.000864 -0.006357 0.000140 0.007531 -0.003836 0.003462 0.005327 -0.005243 0.004497 -0.002415 0.005102 0.002189 -0.000224 0.006665 0.003076 -0.001148 -0.002498 0.002226 -0.008483 -0.005867 0.001719 0.001431 0.003137 0.008535 -0.004030 0.004230 0.007134 -0.006983 0.002747 0.004046 0.001897 -0.005056 -0.005518 -0.000581 0.000366 -0.000501 0.000382 -0.000876 -0.014865 0.000988 0.007286 0.010051 -0.001150 0.001644 -0.005165 -0.000770 -0.007107 0.003390 0.003419 0.000678 -0.001347 -0.008367 0.010731 -0.001361 -0.004704 0.004681 0.000336 0.000481 -0.006501 0.006761 -0.010854 -0.003602 0.003436 -0.001361 -0.001156 0.003255 -0.006659 0.005844 0.009862 -0.001677 -0.000850 0.006216 -0.007516 -0.002460 0.009098 -0.000049
sent_49 0.090642 -0.059042 -0.053443 -0.014911 -0.038961 0.169521 0.076995 0.122231 -0.017670 0.145856 -0.103761 -0.131508 -0.023727 -0.016353 -0.105314 -0.106018 -0.116179 0.084979 -0.101100 -0.094318 0.081052 0.065853 -0.005893 0.101771 0.047977 -0.017364 0.194102 0.032487 -0.014697 0.072221 0.063273 0.096015 -0.018242 -0.001899 0.155272 -0.038687 0.070017 0.057112 0.150282 -0.106033 0.113550 0.010948 -0.139590 -0.009815 0.102694 0.034150 -0.001105 0.007300 -0.003516 -0.100060 0.041484 -0.050001 0.113005 0.094402 0.077518 -0.084824 -0.086110 -0.027800 0.111715 0.158635 -0.084163 0.100449 -0.249380 -0.023776 0.180827 0.209480 -0.026713 -0.114985 0.032895 0.053446 -0.060506 -0.021335 0.070671 -0.034455 0.115383 -0.054395 0.044731 -0.021107 0.042025 -0.052327 0.005659 0.062468 -0.077328 0.042047 0.030134 0.128084 0.096168 -0.095372 -0.022174 -0.025872 -0.100815 0.061830 0.091623 -0.022038 0.007007 0.129182 -0.070928 0.077277 0.121109 0.113505
sent_50 0.164901 -0.079377 -0.025229 0.008841 -0.077488 0.187453 0.109604 0.065341 -0.076203 0.217479 -0.070678 -0.171005 -0.069187 0.000885 -0.058149 -0.117971 -0.228044 0.115222 -0.157003 -0.075365 0.101020 0.088496 0.015437 0.107862 0.083359 0.040062 0.220999 0.017979 -0.089740 0.143002 -0.004897 0.225962 0.009500 -0.048128 0.196786 0.020324 0.066424 0.161226 0.200362 -0.143438 0.134414 -0.025343 -0.204632 -0.028866 0.059501 0.075479 0.025646 -0.007167 0.034779 -0.128503 0.031736 -0.084961 0.109001 0.191249 0.017445 -0.035276 -0.135378 -0.072966 0.052922 0.188185 -0.084443 0.175478 -0.302835 -0.086925 0.316247 0.302386 -0.048702 -0.142489 -0.010011 0.063081 -0.081419 -0.003806 0.106783 -0.131691 0.127614 -0.123246 0.094218 -0.044169 0.012783 -0.038858 0.028589 0.098267 -0.149115 0.012673 -0.013262 0.145291 0.161270 -0.051016 -0.019600 -0.002957 -0.073962 0.041786 0.117164 -0.044446 -0.035304 0.123022 -0.029630 0.052516 0.099286 0.214689
sent_51 0.038611 -0.031338 0.031104 -0.042115 -0.016747 0.047841 0.020254 0.029358 0.016753 0.045555 -0.036269 -0.067709 0.030149 0.003033 -0.064690 -0.059662 0.004835 0.026751 -0.077144 -0.062341 0.058618 0.022333 0.000546 0.011850 0.005165 0.046151 0.074215 -0.020886 0.000185 0.026029 -0.023526 0.076565 -0.040797 0.028468 0.021015 0.001583 0.010892 0.010320 0.039640 -0.047487 0.066653 0.040766 -0.005458 0.058824 0.027755 -0.001710 -0.005991 -0.052915 0.009478 -0.040057 -0.016862 -0.034361 0.032091 0.021559 0.016909 -0.004050 -0.049372 -0.006200 0.050419 0.087880 -0.033446 0.012033 -0.040454 -0.027945 0.084598 0.029590 -0.007796 -0.045697 0.032848 -0.010513 -0.025336 -0.043581 0.007833 -0.019971 0.027444 0.000467 -0.017048 -0.029523 0.025765 -0.000183 -0.004425 0.028004 -0.014217 -0.000861 0.054482 0.086543 0.051385 -0.023957 0.008320 -0.045653 0.010094 0.001153 0.028886 -0.010856 -0.037652 0.025628 0.019665 0.037877 0.014848 0.071685
sent_52 0.067317 -0.028194 0.032385 -0.015295 -0.047937 0.049225 0.017624 0.013409 0.002183 0.081160 -0.000670 -0.044950 -0.016440 -0.018250 -0.017123 -0.039689 -0.077646 0.036885 -0.051431 -0.014613 0.027300 0.025519 0.013648 0.039417 0.038416 0.039030 0.062769 -0.006482 -0.051965 0.053559 -0.023284 0.093046 0.004046 0.002456 0.052406 0.036546 0.010057 0.086956 0.069521 -0.045601 0.043538 -0.014018 -0.067739 0.014350 0.019042 0.013376 0.031911 -0.007719 -0.001046 -0.030035 0.008285 -0.048917 0.027844 0.099946 -0.035526 -0.000964 -0.081890 0.002088 0.020079 0.067174 -0.014141 0.054913 -0.068622 -0.052938 0.095936 0.048463 -0.022316 -0.055382 -0.028599 0.015909 -0.044052 -0.015531 0.060111 -0.029838 0.004702 -0.049086 0.024242 -0.023677 0.023875 -0.005419 0.016364 0.025676 -0.057505 0.006434 -0.014997 0.074551 0.064770 -0.011440 -0.002036 -0.020169 -0.021032 -0.003592 0.045803 -0.024913 -0.029371 0.004483 -0.000937 -0.002531 0.001054 0.058007
sent_53 0.096170 -0.042718 -0.115084 0.066121 -0.090530 0.176162 -0.014866 0.121228 -0.032680 0.177107 -0.052039 -0.189852 -0.003303 0.067436 -0.101427 -0.081760 -0.205023 -0.005934 -0.152140 -0.083394 0.124672 0.112087 0.052146 0.146102 0.057620 -0.000613 0.257518 0.036420 -0.033473 0.112449 0.055015 0.207681 0.043412 -0.038404 0.150879 0.031491 0.106941 0.105181 0.219474 -0.111155 0.106911 -0.080271 -0.220872 -0.007703 0.160209 0.126507 -0.010616 0.043003 -0.098148 -0.134305 0.102066 -0.156206 0.164298 0.095568 0.043293 -0.079248 -0.104983 -0.078714 0.074343 0.192085 -0.048626 0.087276 -0.243139 -0.040794 0.281801 0.225458 -0.089485 -0.134045 0.041613 0.101048 -0.130845 0.055861 0.064063 0.015906 0.094395 -0.073939 0.091845 0.059400 -0.036173 -0.039081 0.031627 0.147510 -0.087723 -0.111542 -0.042533 0.219881 0.133144 -0.173231 0.003938 0.011507 -0.065557 0.126461 0.107685 0.000262 -0.085018 0.191935 -0.062357 0.096852 0.120572 0.137825
sent_54 0.090088 -0.029161 -0.003033 0.017776 -0.047393 0.109639 0.028471 0.014863 -0.042600 0.110081 -0.021101 -0.073664 -0.022517 -0.038739 -0.002124 -0.029895 -0.110490 0.066240 -0.046825 0.009688 0.024102 0.058544 0.019494 0.055717 0.059919 0.024676 0.104306 0.009404 -0.049624 0.045701 0.009071 0.052439 -0.012443 -0.010974 0.111584 0.024646 0.017397 0.100805 0.096351 -0.056324 0.061569 -0.023813 -0.110812 -0.020404 0.047787 0.058105 0.023744 0.019779 -0.032068 -0.031869 0.063291 -0.072945 0.064088 0.146128 -0.027155 -0.037489 -0.091942 0.001897 0.039736 0.107190 -0.023637 0.075181 -0.150703 -0.084574 0.158078 0.099925 -0.034310 -0.079827 -0.030679 0.038140 -0.036421 -0.007767 0.068039 -0.033806 0.019449 -0.058808 0.050697 -0.011944 -0.009379 -0.014143 0.009844 0.008708 -0.077631 0.018995 -0.049530 0.072387 0.103216 -0.073183 -0.051154 -0.013372 -0.056481 0.010848 0.095907 -0.035503 -0.024979 0.064839 -0.049832 0.004715 0.028468 0.046475
sent_55 0.017445 -0.007928 -0.010205 -0.007097 -0.015277 0.028579 0.012363 0.038530 0.011094 0.022640 -0.016507 -0.018571 0.003302 -0.008692 -0.028466 -0.022858 -0.013565 0.013911 -0.020193 -0.026122 0.014342 0.012228 -0.004084 0.029106 0.008904 -0.008823 0.037794 0.013619 -0.000363 0.008787 0.022165 0.017401 -0.005739 0.000092 0.032978 -0.011721 0.014914 0.004942 0.024761 -0.014113 0.023544 -0.000876 -0.030312 -0.001333 0.035609 -0.001170 0.007756 0.003991 -0.010879 -0.013314 0.009589 -0.014800 0.024953 0.009566 0.007741 -0.027752 -0.024751 -0.005599 0.025626 0.026454 -0.019173 0.015848 -0.044174 -0.002074 0.014688 0.031610 -0.004853 -0.027806 0.004867 0.014777 -0.022481 -0.004902 0.016013 0.013207 0.027647 -0.008793 0.010468 -0.000142 0.015272 -0.013782 0.006715 0.018698 -0.010547 0.003932 0.007530 0.027536 0.012927 -0.033154 -0.000603 -0.001955 -0.018561 0.013344 0.016173 -0.008436 0.004491 0.021323 -0.030769 0.018974 0.024294 0.011641
sent_56 0.000351 0.001765 0.002852 -0.002389 -0.002243 0.001052 0.001742 -0.004964 0.003557 -0.003551 0.000124 0.000622 -0.004928 -0.000711 0.000337 0.001907 0.004032 -0.004314 -0.002169 0.000279 -0.002098 -0.000799 0.004821 -0.004431 0.004289 0.001680 -0.000014 -0.000353 0.000589 -0.002084 -0.003282 0.001197 0.004885 0.000162 0.001710 0.000195 -0.003000 0.000787 0.004579 0.001924 -0.004727 -0.001369 0.001339 0.000671 -0.003787 0.004365 -0.001062 0.002293 0.002857 -0.002870 0.001626 0.000234 -0.003217 0.002184 0.000406 -0.002859 -0.000819 0.001808 0.004938 0.000484 0.002939 -0.001694 0.000116 0.003350 0.004705 -0.003215 0.003513 0.004884 -0.000495 -0.001920 0.004125 -0.002801 0.004883 -0.000985 -0.004078 -0.003632 -0.000229 -0.004391 -0.002481 0.002950 0.002853 0.003108 -0.004537 0.002664 0.003068 -0.004840 -0.001087 0.003656 0.004585 0.004196 0.000470 -0.001901 0.000893 0.000960 0.001646 0.000908 0.003681 -0.001260 -0.002560 -0.004795
