57 100
sent_0 0.125944 0.024493 0.053319 -0.091171 -0.133746 0.201738 -0.115600 -0.047368 0.020301 0.084796 0.063035 0.006913 0.107764 -0.057755 0.061569 -0.077660 0.012919 0.022084 -0.015070 -0.005009 0.019025 0.076562 -0.012496 0.026683 0.055329 0.225332 -0.022831 0.025743 -0.113840 -0.128272 -0.077309 -0.002310 0.004431 0.132170 0.085463 0.050554 -0.064922 0.099876 0.033340 -0.030381 0.048418 -0.145359 -0.088156 0.113107 0.018460 0.084377 -0.058521 -0.083079 -0.030652 0.044842 0.010747 -0.169325 0.137487 0.157949 -0.079019 -0.018008 -0.074568 0.120405 0.040216 0.165130 -0.028835 0.005555 0.019490 -0.123692 0.059369 -0.094870 0.008139 -0.092427 -0.076375 0.033467 -0.106796 0.045681 0.012358 0.117500 0.053121 0.074932 0.011582 0.075214 0.018843 -0.074740 -0.001375 0.016451 0.005702 -0.151870 -0.046723 0.077801 0.108690 -0.118195 -0.040441 -0.006023 0.052124 -0.130919 0.018251 -0.052946 0.037221 -0.018782 -0.017945 0.074440 -0.040648 -0.057780
sent_1 0.118827 -0.049281 0.007496 0.009510 -0.017265 0.071819 0.028550 -0.041659 -0.047694 0.078431 -0.039280 -0.085127 0.048892 0.014679 -0.043539 -0.066965 0.028552 0.013162 -0.069421 0.019900 0.003423 0.037096 -0.017321 -0.012751 0.038327 0.081105 0.068657 -0.010754 0.011764 -0.047926 -0.004270 0.040724 -0.027506 0.019955 0.064156 -0.004570 0.006736 0.016416 0.016931 -0.064865 0.058638 -0.005825 -0.045365 0.032584 -0.024810 0.071915 -0.052967 -0.033203 -0.000510 -0.019542 0.011628 -0.060696 0.048236 0.062760 0.037771 -0.010210 -0.023319 0.006152 0.045771 0.114082 -0.055971 0.041660 -0.097157 -0.096495 0.129585 0.057452 -0.020821 -0.074977 0.045750 0.032743 -0.027840 0.004209 -0.051203 -0.062079 0.059547 -0.004857 -0.031302 -0.031989 -0.081927 -0.057693 -0.036170 -0.013241 -0.044975 -0.063140 -0.005039 0.058000 0.100286 -0.047487 -0.091530 -0.020320 0.021105 -0.070228 0.067992 -0.028563 -0.004858 0.044817 -0.027844 0.037825 0.024663 0.067069
sent_2 0.063569 -0.013712 -0.027913 0.016898 -0.075989 0.066491 0.009064 -0.061445 -0.050729 0.078744 0.016140 -0.145710 0.054212 0.086477 -0.018528 -0.047197 -0.092702 0.004450 -0.107636 -0.027990 0.058322 0.083878 0.046630 0.064723 0.068465 0.034326 0.149571 -0.005139 -0.014540 0.058384 -0.061897 0.146446 0.080920 -0.034727 0.015999 0.016947 -0.008781 0.067326 0.092536 -0.106144 0.088543 -0.005177 -0.094983 -0.010342 0.043810 0.086126 0.021020 -0.023326 -0.037186 -0.081208 0.019837 -0.145691 0.078695 0.101954 0.032102 0.031101 -0.022346 -0.048848 -0.048491 0.097241 -0.035832 0.043744 -0.128914 -0.055635 0.195097 0.083393 -0.022009 -0.048533 0.045449 0.010568 -0.076850 0.035574 0.013054 -0.096457 0.082097 -0.023834 0.010806 -0.000655 -0.084533 -0.022933 0.024118 0.035496 -0.029254 -0.166936 -0.044351 0.103462 0.124283 -0.058325 -0.000883 0.035346 0.025647 0.040832 0.091296 0.012625 -0.090939 0.093652 -0.044913 0.045653 0.013538 0.115480
sent_3 0.157020 -0.021620 -0.001553 0.007863 -0.074305 0.085016 0.005275 -0.083140 -0.093816 0.112917 0.034173 -0.118926 0.034903 0.072207 0.016337 -0.098593 -0.120455 0.006387 -0.132328 -0.007486 0.063767 0.079054 0.059043 0.028066 0.091023 0.142945 0.080600 0.003676 -0.065825 0.049944 -0.076265 0.226170 0.077875 -0.047165 0.081871 0.047628 0.030477 0.107629 0.110007 -0.133875 0.111764 -0.042705 -0.152570 -0.011274 -0.014837 0.131568 0.008393 -0.104001 0.048021 -0.081646 0.060805 -0.170179 0.105781 0.132430 0.010359 0.019432 -0.033260 -0.047584 -0.039545 0.112004 -0.040759 0.064497 -0.130643 -0.097857 0.295220 0.179555 -0.011779 -0.053762 -0.009645 0.016504 -0.089138 0.057314 0.009982 -0.104492 0.087428 -0.041135 0.049139 0.000073 -0.100656 -0.038834 0.032154 0.114141 -0.076142 -0.161267 -0.070679 0.117109 0.138685 -0.032544 -0.006624 0.022472 0.075733 0.013210 0.060473 0.004507 -0.023372 0.109757 0.015083 0.018967 0.022891 0.125965
sent_4 0.055881 -0.005538 -0.038203 0.030913 -0.022305 0.251936 0.020690 -0.154321 -0.088140 0.102349 -0.016280 -0.175422 0.019844 0.057293 0.050400 -0.051578 -0.084124 0.073526 0.001561 0.043164 0.042532 0.162084 0.026710 0.061863 0.135944 0.037845 0.113331 0.008305 -0.006750 -0.020163 -0.031454 -0.063347 0.072939 0.035625 0.118168 0.000105 -0.090529 0.079846 0.110377 -0.120675 0.055411 -0.021010 -0.110251 -0.029455 -0.009084 0.179288 -0.085487 0.051404 -0.075239 -0.066484 0.104598 -0.177348 0.105566 0.154863 0.096000 -0.024254 0.045926 0.022457 -0.003446 0.176398 0.001751 0.058888 -0.175188 -0.095875 0.208964 0.102576 0.006418 -0.103765 -0.026948 0.014798 -0.049507 0.051239 -0.022259 -0.101151 0.139630 -0.016903 0.014794 0.054257 -0.136285 -0.150871 -0.027809 -0.089096 0.031741 -0.104793 -0.071530 0.007822 0.152926 -0.128448 -0.114373 0.063063 -0.070657 -0.052029 0.118610 -0.020716 -0.008698 0.152071 -0.069138 0.109280 0.079312 0.067679
sent_5 0.033249 0.001055 -0.028685 0.029778 -0.031022 0.048288 0.014395 -0.039142 -0.024034 0.044304 0.024258 -0.021999 -0.015507 0.029496 0.029816 -0.024447 -0.081689 -0.011743 -0.038929 0.014843 0.033247 0.048753 0.031875 0.041768 0.033728 0.000521 0.038761 0.020843 -0.039710 0.029469 0.001264 0.033130 0.038299 -0.028528 0.072732 0.036019 0.019624 0.043036 0.043449 -0.047481 0.015928 -0.031164 -0.083886 -0.041250 0.005481 0.055295 -0.019832 -0.005869 0.002963 -0.023629 0.031718 -0.053404 0.040675 0.050615 -0.003710 -0.008882 -0.022224 -0.033567 -0.024512 0.042565 -0.014688 0.049095 -0.083673 -0.022986 0.091514 0.087946 -0.007487 -0.018685 -0.021475 0.016190 -0.053182 0.051284 0.021675 -0.022076 0.055052 -0.030590 0.048929 0.018760 -0.050393 -0.019442 0.037647 0.044159 -0.026295 -0.041492 -0.042033 0.019724 0.050789 -0.024598 -0.009701 0.054094 -0.008392 0.005295 0.038884 -0.003279 0.002504 0.036174 -0.025723 0.015841 0.029575 0.024098
sent_6 0.035460 -0.012809 0.005163 -0.007318 -0.016775 -0.006031 0.020374 -0.013564 -0.034936 0.030463 -0.001417 -0.034317 0.006953 0.012709 -0.012546 -0.008727 -0.018186 0.002950 -0.031348 -0.002834 -0.002850 0.000027 0.002981 -0.005892 0.016701 0.026670 0.022345 -0.006608 -0.000781 0.015953 -0.040034 0.073058 0.025341 -0.012261 -0.010351 -0.005369 -0.006352 0.020127 0.011935 -0.023902 0.014991 -0.002218 -0.014683 0.000688 -0.010925 0.003286 0.028148 -0.020356 0.018395 -0.021082 -0.025616 -0.024080 0.012813 0.030706 0.012472 0.025704 0.000391 -0.015403 -0.021912 0.002760 -0.025483 0.020715 -0.019309 -0.026851 0.047399 0.029161 -0.007899 -0.009232 0.017568 -0.001010 0.006717 0.007085 -0.004171 -0.054085 0.013213 -0.004961 -0.003477 -0.023361 -0.003011 -0.006067 -0.001758 0.004372 -0.020281 -0.044902 -0.002845 0.023267 0.026511 0.020163 -0.003696 -0.005577 0.017166 0.002280 0.019760 -0.002960 -0.027321 -0.002551 0.004375 -0.000853 -0.010075 0.053895
sent_7 0.076084 0.002175 -0.017369 0.019582 -0.073716 0.203439 -0.027795 -0.134497 -0.057824 0.096409 0.046853 -0.131512 0.036379 0.093353 0.074826 -0.070934 -0.137385 0.042550 -0.086427 0.001754 0.075290 0.169415 0.078875 0.094986 0.139029 0.080469 0.136138 -0.000744 -0.075150 0.069968 -0.030081 0.096769 0.086709 -0.031632 0.119557 0.047963 0.020891 0.108355 0.145796 -0.166408 0.126521 -0.017231 -0.161487 -0.030716 0.034552 0.175119 -0.040912 -0.054448 -0.043540 -0.090283 0.187745 -0.246707 0.132699 0.180791 0.012325 -0.031355 -0.055324 -0.026924 -0.022294 0.151847 0.031621 0.040338 -0.181757 -0.101746 0.299394 0.149103 0.020663 -0.083151 -0.053013 -0.016563 -0.111963 0.047877 0.052982 -0.052764 0.106404 -0.067172 0.046396 0.039345 -0.143776 -0.041477 0.054944 0.061950 -0.029948 -0.099107 -0.110828 0.104730 0.172290 -0.126501 -0.017175 0.051955 0.013547 0.033001 0.115414 0.017909 -0.026646 0.183261 -0.042531 0.053472 0.030436 0.039396
sent_8 0.155828 -0.012661 -0.018785 0.043631 -0.106774 0.182255 -0.017574 -0.100973 -0.063984 0.129408 0.067097 -0.056753 0.035868 0.042105 0.062373 -0.078778 -0.148811 0.028046 -0.098502 0.036122 0.055859 0.117523 0.048052 0.097135 0.114725 0.108847 0.097010 0.013492 -0.095407 0.021206 0.003209 0.108751 0.041928 -0.038069 0.175937 0.071630 0.031942 0.138830 0.141111 -0.144136 0.090465 -0.078422 -0.203618 -0.049432 0.055477 0.190557 -0.035491 -0.073119 -0.037972 -0.041801 0.186607 -0.225596 0.127111 0.215429 -0.027781 -0.048517 -0.100510 0.006104 0.003793 0.167623 0.015880 0.080412 -0.202815 -0.143029 0.311994 0.184030 -0.002924 -0.081325 -0.087734 0.069971 -0.120477 0.063528 0.057413 -0.036418 0.085576 -0.081649 0.067264 0.035666 -0.140491 -0.029762 0.042287 0.065862 -0.109368 -0.083112 -0.143670 0.085858 0.161109 -0.143336 -0.071390 0.039977 0.024652 -0.013319 0.115503 -0.018519 0.002552 0.147221 -0.042924 0.011964 0.021898 -0.002221
sent_9 0.028606 -0.002466 0.003627 0.010242 -0.010794 0.041458 0.033559 -0.026198 -0.016168 0.029016 0.001384 -0.011838 -0.010848 0.003795 0.012397 -0.017505 -0.026697 0.031822 -0.018996 0.004476 0.005195 0.021235 0.000932 0.020156 0.027923 0.007181 0.028335 0.001368 -0.012139 0.013417 0.007933 0.010118 -0.005234 -0.011686 0.050760 0.008456 0.007862 0.035193 0.031411 -0.035788 0.023604 0.004210 -0.037769 -0.018889 0.007551 0.037275 -0.005018 -0.017174 0.003234 -0.008655 0.048949 -0.036217 0.019744 0.058355 0.000413 -0.027487 -0.029284 0.003529 0.009665 0.033220 0.006129 0.028429 -0.063726 -0.031596 0.070509 0.057135 0.009204 -0.017507 -0.016774 0.002051 -0.009855 0.005495 0.020703 -0.025226 0.022953 -0.036318 0.011348 -0.008239 -0.029546 -0.003403 0.004053 -0.004391 -0.029403 0.023889 -0.023066 0.006989 0.036980 -0.019569 -0.019480 0.000965 -0.000867 -0.005235 0.033204 -0.005079 0.011537 0.039681 -0.018401 -0.002800 0.008210 0.001093
sent_10 0.136857 -0.067999 0.038317 -0.014362 -0.061706 0.188695 0.035794 -0.031435 -0.020728 0.140436 -0.053916 -0.147774 0.034566 0.011040 -0.034811 -0.127522 -0.074167 0.079581 -0.104595 -0.015774 0.063285 0.111251 0.034420 0.084098 0.116545 0.067451 0.178838 -0.018029 -0.021103 0.046834 -0.001116 0.079536 -0.005855 0.016892 0.137976 0.015733 0.033529 0.093623 0.118349 -0.161563 0.130539 0.032766 -0.131897 0.013009 0.037163 0.086562 -0.013414 -0.050990 -0.000557 -0.091232 0.118912 -0.155952 0.109118 0.193367 0.046648 -0.059730 -0.101294 0.018517 0.068346 0.183167 -0.043390 0.079408 -0.217294 -0.115760 0.247197 0.162442 -0.001835 -0.136808 -0.002711 -0.001479 -0.085008 -0.028763 0.052247 -0.073456 0.097286 -0.073251 0.016877 -0.029475 -0.077250 -0.055912 0.040039 0.033433 -0.064878 0.005136 -0.045837 0.157524 0.169385 -0.110898 -0.063869 -0.015726 -0.034150 0.001702 0.123612 -0.026341 -0.004438 0.119735 -0.070373 0.050561 0.053078 0.081499
sent_11 0.056413 -0.033673 -0.006195 0.016920 -0.023147 0.119897 0.061150 -0.019466 0.006288 0.076538 -0.042111 -0.066851 -0.002251 0.023160 -0.005641 -0.073612 -0.071296 0.043632 -0.072893 -0.023289 0.061675 0.077351 0.034130 0.055711 0.055446 -0.011477 0.122029 0.010632 -0.019253 0.055983 0.029548 0.029970 -0.019126 -0.025660 0.124866 0.008607 0.065123 0.044389 0.080377 -0.110417 0.091711 0.047555 -0.091678 -0.030852 0.034156 0.057715 -0.030078 -0.024971 0.014929 -0.064860 0.090499 -0.070396 0.063822 0.092541 0.028633 -0.066973 -0.074765 -0.029089 0.038853 0.105421 -0.023848 0.063375 -0.186833 -0.040818 0.156285 0.156641 0.019476 -0.065309 0.003156 -0.015283 -0.063117 -0.015867 0.039351 -0.051170 0.091037 -0.061085 0.033561 -0.016305 -0.061981 -0.002568 0.057078 0.049210 -0.047768 0.064439 -0.018689 0.074437 0.106593 -0.049197 -0.017746 0.023265 -0.029544 0.016153 0.082640 -0.007216 0.020776 0.097004 -0.054931 0.034551 0.065952 0.047845
sent_12 0.012200 -0.009621 -0.001508 0.009311 -0.011290 -0.012604 0.012053 0.004448 -0.012795 0.013197 -0.004800 -0.020373 0.000857 0.009072 -0.018526 -0.000456 -0.002741 0.002513 -0.019549 -0.004676 0.002034 -0.002380 0.000231 0.003524 -0.000635 -0.009120 0.023773 -0.001257 0.005188 0.012825 -0.006671 0.026775 -0.002494 -0.008528 -0.010569 -0.010140 0.008339 0.002919 0.002330 -0.015233 0.010062 0.004228 -0.004332 0.000622 0.012321 0.003276 0.014387 0.003732 -0.003404 -0.012449 -0.009705 -0.000815 -0.000316 0.008581 0.007033 0.010159 -0.007725 -0.012906 -0.003592 -0.000498 -0.018192 0.010309 -0.018876 -0.009624 0.017759 0.014759 -0.004821 -0.003104 0.016069 0.010592 0.001975 0.000248 -0.008003 -0.024671 0.004727 -0.011269 -0.007993 -0.014482 -0.015334 0.002611 -0.000992 -0.001390 -0.014488 -0.018266 0.001412 0.011269 0.010207 -0.002348 -0.009422 -0.000904 0.009518 0.012032 0.014134 0.003399 -0.020779 0.010214 -0.008635 0.001832 -0.001338 0.019796
sent_13 0.090550 -0.027277 0.013351 0.006757 -0.067616 0.095555 0.022485 -0.002383 -0.002599 0.077869 0.003864 -0.011905 0.013733 -0.018545 -0.009509 -0.049293 -0.042559 0.037483 -0.064426 -0.002581 0.024033 0.043986 0.007205 0.055032 0.045388 0.029345 0.086107 0.001908 -0.030951 0.009965 0.031482 0.037317 -0.029505 -0.002797 0.104420 0.015629 0.043647 0.070337 0.064424 -0.075827 0.066624 -0.009451 -0.086597 -0.014145 0.062304 0.062672 -0.001101 -0.034266 -0.015475 -0.015651 0.097457 -0.095445 0.068961 0.135468 -0.014590 -0.059706 -0.105941 0.022588 0.051032 0.097305 -0.014021 0.051240 -0.136560 -0.090327 0.140668 0.091703 0.006698 -0.054065 -0.029701 0.033120 -0.046784 -0.009219 0.050678 -0.005994 0.033772 -0.058660 0.018389 -0.006118 -0.043976 -0.002689 0.024054 0.024873 -0.082605 0.034379 -0.050154 0.065469 0.088527 -0.080797 -0.051935 -0.018570 -0.001460 -0.006219 0.079186 -0.022936 0.004514 0.065880 -0.048298 0.003374 0.007440 -0.019601
sent_14 0.053390 -0.021648 0.018029 -0.000426 -0.033401 0.023825 0.015680 -0.026382 -0.043155 0.045341 0.012884 -0.041718 0.011150 0.004348 -0.008205 -0.007451 -0.024594 0.025298 -0.037365 0.007660 -0.010325 0.008489 0.001788 0.007269 0.032965 0.044308 0.037555 -0.016562 -0.009462 0.009400 -0.038740 0.066132 0.019701 -0.000636 0.011007 0.003259 -0.019678 0.046531 0.028154 -0.028751 0.021519 -0.012321 -0.028193 -0.001103 0.001390 0.034040 0.035723 -0.013172 -0.004290 -0.018909 0.008691 -0.059522 0.020369 0.080615 0.001107 0.018801 -0.020961 0.004982 -0.014602 0.027685 -0.019887 0.030732 -0.034531 -0.067690 0.077389 0.025926 -0.018970 -0.027890 -0.008199 0.015028 -0.003374 0.006849 0.009016 -0.059000 0.007457 -0.025760 0.004265 -0.012751 -0.021629 -0.020704 -0.007467 -0.019392 -0.037833 -0.043472 -0.024342 0.025660 0.050960 -0.006911 -0.035477 -0.016471 0.012661 -0.014442 0.044221 -0.015770 -0.026698 0.013370 -0.006801 -0.008147 -0.019551 0.042640
sent_15 -0.012394 0.008307 -0.018018 0.034804 -0.015108 0.077418 0.050964 -0.042040 -0.015896 0.034538 0.000829 -0.016198 -0.035353 0.022827 0.040700 -0.010719 -0.086395 0.029372 -0.016060 0.007618 0.034110 0.069037 0.028733 0.045398 0.040952 -0.057376 0.058664 0.017460 -0.022705 0.052838 0.024932 -0.021685 0.016095 -0.034870 0.083262 0.007553 0.013658 0.035927 0.053459 -0.054470 0.025868 0.025664 -0.067021 -0.071271 0.027623 0.055032 -0.017442 0.018859 -0.007454 -0.025729 0.072039 -0.038783 0.032022 0.067881 0.026558 -0.037710 -0.027763 -0.032375 -0.012395 0.042123 0.009176 0.050071 -0.125323 -0.003303 0.085245 0.103224 0.023434 -0.013037 -0.031057 -0.009137 -0.026285 0.015746 0.033721 -0.042490 0.065233 -0.053444 0.050646 0.008459 -0.051957 -0.010871 0.040955 0.003505 -0.021976 0.045569 -0.033889 -0.014171 0.052802 -0.015060 -0.005095 0.051161 -0.045740 0.022103 0.053760 0.004958 0.016880 0.065111 -0.044017 0.018136 0.050434 0.013294
sent_16 0.113988 -0.056043 0.024921 0.003183 -0.040468 0.009588 0.068059 0.005980 -0.065304 0.078821 -0.018349 -0.047707 0.002815 -0.016825 -0.044949 -0.053640 -0.019839 0.032379 -0.069966 0.005091 -0.005202 -0.013471 -0.005594 0.001622 0.032348 0.062907 0.055212 -0.017049 0.005882 0.008159 -0.012490 0.109439 -0.012123 -0.015848 0.040825 -0.005346 0.008270 0.067816 0.029966 -0.051965 0.046709 -0.011491 -0.053843 -0.002882 -0.001931 0.034258 0.046782 -0.039304 0.037305 -0.019387 0.000273 -0.043055 0.030354 0.113517 0.022154 0.000579 -0.049209 0.009432 0.011504 0.042868 -0.057383 0.061390 -0.097548 -0.086961 0.131389 0.095602 -0.021240 -0.027856 0.016616 0.041968 0.005660 -0.000375 0.007097 -0.101196 0.026031 -0.051405 -0.009175 -0.051642 -0.027735 -0.024549 -0.020447 -0.004465 -0.100719 -0.022355 -0.019486 0.051316 0.058995 0.001825 -0.056957 -0.041738 0.025516 -0.018840 0.049604 -0.015389 -0.018582 0.020387 -0.010830 -0.018332 -0.011920 0.075824
sent_17 0.109581 -0.027140 0.033655 -0.023034 -0.060122 0.068131 0.021592 0.005178 -0.011174 0.074890 -0.008330 -0.032788 0.036579 -0.011951 -0.040222 -0.064134 -0.011587 0.036685 -0.076600 -0.022832 0.020610 0.014116 0.003832 0.043809 0.040329 0.075215 0.065635 -0.015397 -0.016051 0.003237 0.015270 0.093111 -0.010485 0.017061 0.073546 0.008764 0.050517 0.061740 0.053571 -0.083764 0.080775 -0.004272 -0.069173 0.023617 0.046388 0.044224 0.013316 -0.068577 0.009681 -0.012038 0.079877 -0.100237 0.073132 0.126661 -0.010231 -0.039073 -0.102697 0.030619 0.056731 0.085229 -0.028459 0.035424 -0.103355 -0.092479 0.151992 0.079338 -0.001547 -0.056852 -0.015117 0.017511 -0.040474 -0.011738 0.043713 -0.022385 0.032737 -0.044895 -0.005235 -0.029774 -0.032311 -0.001254 0.007883 0.039511 -0.081364 -0.000234 -0.018929 0.092539 0.086881 -0.053462 -0.037364 -0.054240 0.039692 -0.005622 0.062100 -0.009811 0.001104 0.050104 -0.025283 -0.004341 -0.008228 -0.003917
sent_18 0.149748 -0.031320 -0.053726 0.062350 -0.079189 0.101370 0.059862 0.007388 -0.014733 0.097997 -0.006796 0.021430 0.012869 0.002243 -0.005093 -0.091084 -0.068767 -0.019244 -0.099361 0.014997 0.037566 0.044327 0.004894 0.054183 0.020816 0.008765 0.095519 0.064155 -0.051845 -0.012371 0.063164 0.018698 -0.034679 -0.032186 0.193452 0.037099 0.078845 0.053107 0.050654 -0.071234 0.036534 -0.072370 -0.150590 -0.038277 0.033005 0.089122 -0.076466 -0.024773 0.012053 -0.000584 0.030945 -0.040570 0.080625 0.091045 -0.001164 -0.071240 -0.105296 -0.034037 0.032829 0.113982 -0.077136 0.127991 -0.215115 -0.044948 0.111334 0.159707 -0.010150 -0.074479 0.000171 0.084410 -0.098970 0.072339 0.018545 0.008792 0.118892 -0.054849 0.067733 -0.002460 -0.081970 -0.034735 0.052695 0.088562 -0.100763 0.000924 -0.048992 0.050680 0.093146 -0.067462 -0.060686 0.058694 -0.013467 -0.052617 0.060255 -0.037313 0.059196 0.046680 -0.090037 0.056321 0.076131 0.021514
sent_19 0.041564 -0.009759 -0.028301 0.022182 -0.031009 0.007702 0.028284 -0.007577 -0.030800 0.032217 -0.005189 -0.042820 0.017130 0.039348 -0.018586 -0.031761 -0.034809 -0.015846 -0.054626 -0.004264 0.028007 0.018708 0.011941 0.021115 0.011578 -0.001800 0.056810 0.010986 0.001381 0.015007 -0.001182 0.055472 0.020945 -0.024509 0.034145 0.005229 0.021570 0.019249 0.029612 -0.029219 0.022777 -0.026715 -0.054375 -0.015165 0.011356 0.034095 -0.006999 -0.008964 0.001712 -0.015899 -0.016502 -0.028654 0.037692 0.022876 0.014636 0.001462 -0.011967 -0.028606 -0.015757 0.032323 -0.033843 0.042793 -0.069588 -0.007010 0.066289 0.068692 -0.014062 -0.012841 0.029718 0.029040 -0.037567 0.035469 -0.010635 -0.036741 0.045429 -0.016027 0.010900 -0.006844 -0.034005 -0.013508 0.001666 0.032505 -0.027890 -0.058473 -0.012854 0.023331 0.042012 -0.013827 -0.010057 0.020443 0.016193 0.002095 0.025665 0.005099 -0.012087 0.029001 -0.027788 0.024802 0.016241 0.057847
sent_20 0.125595 -0.016208 -0.028308 0.056365 -0.126605 0.126621 0.062523 -0.028400 -0.014047 0.132103 0.035776 0.004138 0.022522 -0.006509 -0.018054 -0.037286 -0.094187 0.023950 -0.100002 0.016507 0.048374 0.068427 -0.001925 0.111499 0.046108 -0.010505 0.140965 0.041214 -0.038732 -0.006735 0.053698 0.016150 -0.017366 -0.007653 0.179493 0.028761 0.049463 0.109623 0.110563 -0.088068 0.058690 -0.058265 -0.160540 -0.047531 0.117448 0.127864 -0.030019 -0.006834 -0.059822 0.021003 0.109261 -0.144293 0.109062 0.194742 -0.009957 -0.090086 -0.154847 0.019255 0.047242 0.155702 -0.053688 0.104119 -0.237007 -0.122692 0.193263 0.143192 -0.016109 -0.080629 -0.020834 0.098440 -0.090459 0.067016 0.052352 -0.019236 0.089375 -0.076664 0.058038 0.018555 -0.102992 -0.010534 0.025123 0.006865 -0.142114 -0.003730 -0.094943 0.051018 0.138323 -0.117903 -0.106437 0.032471 -0.019523 -0.041728 0.138620 -0.036660 -0.024187 0.090177 -0.128374 0.023095 0.033159 -0.027423
sent_21 0.124072 -0.032424 0.027328 0.045123 -0.062228 0.048673 0.025684 -0.122003 -0.124968 0.138087 0.068737 -0.129944 -0.005172 0.041183 0.015964 -0.010435 -0.130194 0.024357 -0.073741 0.065892 0.002890 0.064952 0.051864 0.044032 0.111076 0.100886 0.086338 -0.036341 -0.031831 0.042954 -0.087185 0.162433 0.090314 -0.030274 0.038590 0.060248 -0.051650 0.142427 0.099950 -0.096860 0.036853 -0.042483 -0.123425 -0.042241 -0.015221 0.136838 0.035496 -0.011562 -0.020581 -0.039413 0.066668 -0.173602 0.050621 0.194013 0.004842 0.053895 -0.034162 -0.014205 -0.065936 0.102237 -0.018712 0.071981 -0.110361 -0.152088 0.262098 0.116299 -0.051225 -0.055423 -0.045096 0.052458 -0.029265 0.059145 0.020296 -0.172942 0.023298 -0.074828 0.029761 0.000252 -0.121143 -0.060004 -0.004456 -0.020609 -0.100329 -0.143232 -0.105289 0.056335 0.132300 -0.026532 -0.096167 0.016731 0.023491 -0.031814 0.120617 -0.023410 -0.093334 0.059836 -0.010612 -0.035822 -0.014636 0.108151
sent_22 0.048320 -0.017154 0.013618 -0.003378 -0.007750 0.005228 0.018684 -0.001698 -0.011902 0.031006 -0.002183 -0.001183 0.001652 -0.009330 -0.005645 -0.021569 -0.001154 0.000398 -0.020032 0.006216 -0.001751 -0.007514 -0.000488 -0.001689 0.009616 0.024488 0.006013 -0.006100 -0.010927 -0.006091 0.001581 0.024576 -0.010621 0.004425 0.020844 0.006807 0.007116 0.021282 -0.001256 -0.015755 0.010992 -0.012151 -0.023543 0.000572 -0.011642 0.009925 0.001404 -0.011408 0.017707 0.000668 0.002330 -0.011078 0.008149 0.029187 -0.005169 -0.004467 -0.022938 0.001386 0.012424 0.021257 -0.015019 0.025654 -0.024630 -0.028435 0.030950 0.020048 -0.006307 -0.015868 -0.006136 0.009548 -0.007916 0.003461 0.006823 -0.014616 0.003222 -0.010289 0.001063 -0.010949 -0.006174 -0.007269 0.001475 0.011226 -0.026037 -0.000010 -0.001696 0.021621 0.023683 -0.002563 -0.027153 -0.007369 0.007000 -0.021575 0.017360 -0.017552 0.010762 -0.011236 -0.000298 -0.004177 0.001844 0.011528
sent_23 0.038853 -0.013235 -0.050627 0.036121 -0.044592 0.027219 0.038923 -0.002606 -0.021686 0.035905 -0.012543 -0.035321 0.038598 0.026049 -0.038234 -0.019429 0.000443 -0.023118 -0.056754 0.003052 0.019864 0.017600 -0.011038 0.024897 -0.004893 -0.027752 0.084494 0.018394 0.020434 -0.029682 0.021301 0.001281 -0.007351 -0.010084 0.042207 -0.012790 0.001961 0.006994 0.019252 -0.021649 0.022741 -0.023745 -0.036873 -0.005460 0.043668 0.048208 -0.020203 0.017950 -0.038349 -0.004071 -0.025539 -0.031194 0.040592 0.024676 0.029651 -0.016546 -0.021999 -0.016301 0.006099 0.060145 -0.048611 0.037694 -0.100448 -0.018474 0.042833 0.035875 -0.021788 -0.027806 0.064393 0.047454 -0.036686 0.034536 -0.031631 -0.027637 0.065252 -0.004964 -0.005195 -0.000092 -0.054958 -0.026592 -0.023588 -0.007349 -0.030771 -0.069888 -0.012726 0.010973 0.055949 -0.044137 -0.049699 0.026160 -0.003295 -0.023314 0.048995 -0.008569 -0.032907 0.038481 -0.073545 0.047448 0.019561 0.037227
sent_24 0.063705 -0.019392 0.015599 -0.008492 -0.007808 0.011654 0.020621 -0.001869 -0.026265 0.035190 -0.006706 -0.025114 0.000486 -0.001276 -0.013208 -0.039469 -0.011152 0.007432 -0.025853 -0.001726 -0.001776 -0.003365 0.006046 -0.004207 0.021649 0.058945 0.001454 -0.010170 -0.008747 -0.001060 -0.016185 0.062083 0.007855 0.000474 0.022703 0.012946 0.005405 0.034327 0.010570 -0.024099 0.013805 -0.014805 -0.035203 0.011203 -0.024019 0.019678 0.002010 -0.036399 0.031659 -0.008621 0.000408 -0.021434 0.020335 0.036381 -0.000811 0.006390 -0.007732 0.008294 0.007249 0.024541 -0.019855 0.026576 -0.021959 -0.034147 0.059155 0.046367 -0.010701 -0.015018 -0.003218 0.007842 -0.010594 0.007672 0.005284 -0.032601 0.015838 -0.015241 -0.001010 -0.017232 -0.012070 -0.020536 -0.003920 0.026285 -0.028746 -0.022496 -0.002766 0.029222 0.025873 0.004673 -0.015438 -0.012464 0.021124 -0.019324 0.004531 -0.008096 0.011628 -0.000002 0.017286 -0.007228 0.003594 0.035769
sent_25 0.043919 0.001806 -0.015501 -0.008812 -0.011450 0.061607 -0.002068 -0.013810 -0.007729 0.034030 -0.015150 -0.065142 0.025087 0.034485 -0.007768 -0.053604 -0.033981 -0.006857 -0.032313 -0.021887 0.043742 0.046512 0.025036 0.028193 0.031872 0.040235 0.033615 0.015648 -0.016016 0.005036 -0.005639 0.035547 0.038639 0.013771 0.049942 0.021246 0.017663 0.015657 0.039729 -0.053064 0.030771 -0.015523 -0.064774 0.012512 -0.007400 0.048630 -0.040382 -0.030134 0.006149 -0.028171 0.016735 -0.057761 0.053135 0.011466 0.022344 -0.011592 0.005465 -0.014343 0.014131 0.064701 -0.016135 0.022279 -0.055737 0.000054 0.079544 0.059256 -0.007642 -0.035459 0.012403 -0.003456 -0.058361 0.030994 -0.001292 -0.004718 0.056158 0.011517 0.012794 0.008587 -0.030737 -0.038972 0.011146 0.052964 0.010588 -0.060764 0.000282 0.046711 0.049370 -0.029183 0.007756 0.022105 0.009060 0.000213 0.006968 0.004391 0.016816 0.047261 -0.007947 0.037653 0.044433 0.039416
sent_26 0.097244 -0.049250 0.011360 -0.016234 -0.001324 0.108129 0.030816 -0.044339 -0.066349 0.092183 -0.033206 -0.144590 -0.008531 0.057104 -0.013126 -0.092340 -0.103221 0.056347 -0.072607 -0.023443 0.047816 0.077888 0.061469 0.049411 0.112949 0.085546 0.099699 -0.020797 -0.020932 0.085903 -0.009145 0.161709 0.061896 -0.031922 0.063370 0.015829 0.049177 0.076905 0.104113 -0.140388 0.109407 0.033822 -0.109733 -0.027744 -0.013052 0.095141 0.008548 -0.069768 0.042595 -0.114576 0.140968 -0.139916 0.078490 0.126263 0.050201 -0.016725 -0.025297 -0.022879 0.015568 0.081022 -0.001195 0.038916 -0.139382 -0.068659 0.270564 0.191895 0.009767 -0.061374 -0.022739 -0.025704 -0.035308 -0.009176 0.042506 -0.112136 0.054614 -0.082739 0.014878 -0.030808 -0.080807 -0.047246 0.031098 0.069370 -0.051659 -0.026295 -0.039832 0.117159 0.096385 -0.032822 -0.001470 -0.033321 0.014222 0.066223 0.063053 0.029691 -0.000878 0.144940 0.015592 0.003803 0.034239 0.089302
sent_27 0.079437 -0.017654 0.005257 -0.016833 -0.034623 0.043662 0.024650 0.022573 -0.008921 0.052533 -0.008655 -0.018069 0.018143 0.000008 -0.028525 -0.054635 -0.019798 0.010597 -0.048861 -0.018843 0.010438 0.009077 0.004423 0.030519 0.016787 0.048023 0.045791 0.003242 -0.014860 0.004055 0.015420 0.063672 -0.003122 0.007172 0.052050 0.011477 0.028315 0.039047 0.041715 -0.047673 0.033095 -0.029188 -0.059191 0.013794 0.027022 0.030512 0.003527 -0.036354 0.007128 -0.017173 0.031636 -0.047344 0.055616 0.066744 0.003192 -0.018816 -0.061229 0.010727 0.029028 0.059162 -0.029487 0.036827 -0.075947 -0.043796 0.079530 0.069850 -0.001779 -0.037084 -0.002385 0.015602 -0.037986 0.006338 0.030226 -0.008707 0.029585 -0.031101 0.004606 -0.016633 -0.013749 -0.016494 0.010039 0.036993 -0.050383 -0.013985 -0.004577 0.059220 0.044204 -0.033157 -0.017568 -0.018427 0.013637 -0.000730 0.026287 -0.012130 0.012925 0.030324 -0.024553 0.004318 0.012252 0.009333
sent_28 0.030128 -0.013384 0.011536 -0.006469 -0.010070 0.013003 0.014504 0.001277 -0.000641 0.017686 -0.013209 -0.004423 0.003120 -0.013763 -0.013986 -0.020425 -0.000451 0.014362 -0.020665 0.000576 0.004737 0.001677 -0.009187 0.000986 0.000400 0.019278 0.019307 -0.000433 -0.003028 -0.009231 0.006486 0.013382 -0.013717 0.001114 0.018910 -0.001279 0.009661 0.012520 0.012737 -0.019532 0.016748 0.001431 -0.014597 0.003296 0.007187 0.011713 -0.003721 -0.008396 0.003044 0.001207 0.005169 -0.005967 0.011070 0.022481 0.003001 -0.015038 -0.022305 0.012833 0.020767 0.018569 -0.013111 0.020931 -0.025781 -0.025426 0.028921 0.027733 -0.000455 -0.013923 0.006315 0.009015 -0.008679 -0.000695 0.001803 -0.013537 0.010780 -0.008243 -0.006199 -0.009312 -0.007264 -0.004182 0.001645 0.003651 -0.025699 0.008883 0.000175 0.013869 0.021026 -0.002746 -0.018366 -0.016297 0.004927 -0.014529 0.008495 -0.005588 0.002046 0.008270 -0.008379 -0.003045 0.001436 0.003533
sent_29 0.036843 0.007955 -0.008484 0.073405 -0.051221 0.141677 0.066450 -0.091106 -0.028114 0.103364 0.040186 -0.007402 -0.061164 0.008646 0.059437 0.003005 -0.148828 0.057966 -0.030008 0.049292 0.042006 0.111081 0.034968 0.083926 0.085039 -0.055682 0.091620 0.025808 -0.055274 0.060892 0.032187 -0.050866 0.013076 -0.041040 0.169077 0.058385 0.016692 0.109765 0.111789 -0.084266 0.028926 0.000264 -0.134784 -0.107791 0.052540 0.125172 -0.045941 0.041687 -0.027006 0.003153 0.142524 -0.112266 0.050006 0.162855 -0.005096 -0.068617 -0.091577 -0.028243 -0.007844 0.109717 0.018211 0.098929 -0.210501 -0.079727 0.179271 0.157645 0.008016 -0.048247 -0.087780 0.032963 -0.063106 0.050310 0.076552 -0.054139 0.081572 -0.103829 0.093706 0.027269 -0.103913 -0.018552 0.060410 -0.018914 -0.078794 0.075850 -0.101147 -0.006837 0.108382 -0.058267 -0.073390 0.076783 -0.069784 -0.021451 0.130495 -0.025511 0.013265 0.090461 -0.091431 0.003477 0.065167 -0.023571
sent_30 0.096585 -0.044228 0.017001 0.003048 -0.021540 0.016676 0.033155 0.013508 -0.008266 0.057388 -0.020256 -0.016457 0.014387 -0.017549 -0.028878 -0.048908 -0.001678 0.008566 -0.052578 0.005808 -0.006748 -0.002881 -0.006495 -0.004542 0.012998 0.047780 0.038272 -0.006912 -0.005194 -0.007603 0.000353 0.056338 -0.027205 0.004773 0.048536 0.011354 0.031902 0.024323 0.009601 -0.034725 0.031984 -0.010926 -0.042883 0.013466 -0.008166 0.012204 -0.008388 -0.034827 0.032086 -0.005774 -0.010749 -0.009268 0.021729 0.051730 -0.005853 -0.009126 -0.045226 0.000262 0.028545 0.047729 -0.047756 0.052015 -0.062898 -0.049122 0.060195 0.053058 -0.015366 -0.040234 0.005594 0.031424 -0.022520 -0.008252 0.003863 -0.023889 0.019859 -0.019435 0.005570 -0.031362 -0.013719 -0.017603 0.007675 0.025699 -0.060791 0.007982 0.002430 0.046990 0.043321 -0.007823 -0.041422 -0.021107 0.009722 -0.041459 0.026586 -0.020510 0.016936 -0.007329 -0.011095 -0.004077 0.014413 0.033856
sent_31 0.015994 0.013314 -0.024657 0.040035 -0.023621 0.118437 0.015225 -0.081099 -0.036975 0.057296 0.029175 -0.048011 -0.033630 0.054471 0.067947 -0.028018 -0.120070 0.021066 -0.018860 0.018201 0.047869 0.105716 0.056432 0.058936 0.078121 -0.008548 0.060456 0.024484 -0.057655 0.057627 0.006085 0.007993 0.049558 -0.045379 0.110657 0.039621 0.013582 0.066969 0.088536 -0.079503 0.040525 -0.011812 -0.114310 -0.066095 0.003415 0.101966 -0.046639 0.003290 -0.008289 -0.046046 0.097960 -0.096814 0.052240 0.084904 0.017277 -0.034004 -0.005992 -0.037569 -0.034068 0.067347 0.027132 0.050292 -0.127464 -0.019905 0.150979 0.126626 0.015653 -0.035359 -0.053968 -0.000982 -0.064501 0.050061 0.033380 -0.039821 0.078302 -0.049884 0.065938 0.036128 -0.083485 -0.036710 0.051229 0.034614 -0.008948 -0.011793 -0.071515 0.013991 0.071264 -0.046458 -0.010593 0.073722 -0.035508 0.011209 0.062264 0.011106 0.019155 0.097305 -0.028746 0.034652 0.059800 0.024364
sent_32 0.080503 -0.041112 0.024854 -0.016569 -0.037460 0.050336 0.039595 0.026777 0.009919 0.060750 -0.033510 -0.021557 0.014150 -0.016510 -0.035602 -0.065074 -0.005038 0.025081 -0.075311 -0.027463 0.029520 0.011966 -0.001452 0.026338 0.018865 0.030561 0.075298 -0.001035 -0.006647 0.012747 0.025515 0.052358 -0.038995 0.002389 0.071383 0.003859 0.057656 0.032732 0.039272 -0.072100 0.067527 0.025876 -0.054190 0.011958 0.036965 0.020125 0.006258 -0.049903 0.016450 -0.019197 0.047525 -0.043964 0.047639 0.085489 0.002750 -0.045114 -0.091961 0.010150 0.062442 0.077288 -0.034451 0.043456 -0.108255 -0.059843 0.109339 0.085598 0.006789 -0.050174 0.011958 0.007633 -0.034174 -0.031587 0.037117 -0.019136 0.028379 -0.040154 -0.001292 -0.040998 -0.019063 0.015842 0.017088 0.034635 -0.063068 0.050787 0.002142 0.078565 0.067674 -0.035024 -0.021130 -0.031526 0.010613 0.001480 0.050109 -0.016220 0.002705 0.033894 -0.031991 0.003102 0.016534 0.018672
sent_33 0.113267 -0.035853 0.030907 -0.006557 -0.082830 0.036211 0.029581 0.046065 0.027889 0.086605 -0.004401 0.016327 0.043109 -0.043066 -0.064758 -0.050780 0.005528 0.008124 -0.066963 -0.010296 0.004554 -0.004265 -0.026150 0.049761 0.008478 0.042079 0.066728 0.008212 -0.009210 -0.035079 0.035301 0.043006 -0.048231 0.041597 0.085719 0.022735 0.046288 0.057031 0.034641 -0.042347 0.036800 -0.036468 -0.068897 0.033733 0.069256 0.028351 -0.011124 -0.031918 -0.011384 0.034113 0.025949 -0.056157 0.061468 0.104722 -0.031561 -0.046414 -0.123923 0.039515 0.081401 0.103656 -0.060307 0.052396 -0.099667 -0.079607 0.078687 0.043605 -0.024706 -0.068546 0.011243 0.060017 -0.056554 0.004274 0.032933 0.018251 0.013932 -0.027007 0.004362 -0.013116 -0.008157 0.003250 0.007090 0.022950 -0.097104 0.008061 -0.012559 0.079401 0.073656 -0.064568 -0.056806 -0.031973 0.011819 -0.049372 0.061909 -0.044359 -0.004109 0.004754 -0.054604 -0.008383 0.002630 -0.019606
sent_34 0.050710 -0.028653 -0.001732 -0.002827 -0.015037 0.106714 0.080276 0.001441 0.001615 0.066928 -0.041566 -0.050925 -0.024315 0.020694 -0.008018 -0.065871 -0.069562 0.052399 -0.050093 -0.034655 0.043691 0.057894 0.020383 0.067008 0.052551 -0.030090 0.100752 0.018148 -0.013904 0.065637 0.037155 0.024681 0.007787 -0.016268 0.110500 0.000511 0.042769 0.045614 0.076397 -0.090323 0.059409 0.026500 -0.092875 -0.037641 0.025325 0.037750 -0.019557 -0.009171 0.021714 -0.053810 0.069175 -0.051871 0.061577 0.092997 0.042343 -0.055841 -0.062052 -0.011525 0.034082 0.075896 -0.027452 0.066853 -0.171672 -0.015409 0.119925 0.150386 0.018655 -0.052803 -0.003467 -0.018273 -0.041573 0.007352 0.056195 -0.047015 0.087773 -0.067013 0.035018 -0.022021 -0.034377 -0.024699 0.041396 0.037799 -0.034490 0.065206 -0.009094 0.051100 0.067653 -0.033268 -0.001629 0.013132 -0.046855 0.025973 0.061813 0.005280 0.038126 0.075540 -0.054705 0.036031 0.058667 0.037337
sent_35 0.006186 0.000887 0.001212 -0.006963 0.002030 0.003022 -0.004897 0.002988 -0.004473 0.003443 -0.003400 -0.011337 -0.001885 0.002792 0.000049 -0.007392 -0.001690 0.002415 0.001015 -0.001353 0.001646 0.000073 0.000141 -0.000926 -0.001192 0.007476 0.004567 0.002413 -0.005864 -0.001062 -0.006418 0.014294 0.004651 0.002255 0.001236 0.003446 -0.000184 -0.001874 0.007639 -0.008251 0.000163 -0.001888 0.000350 0.003852 -0.006529 -0.002016 0.002908 -0.001482 -0.000076 -0.000802 -0.000277 -0.003780 0.004261 -0.006488 -0.000020 -0.001293 0.005655 -0.004282 -0.002244 -0.000419 0.002456 -0.004290 -0.001302 0.003327 0.009839 0.006174 0.002073 -0.005596 -0.001777 -0.008241 -0.003660 0.006783 -0.004655 -0.003600 -0.002112 0.002836 -0.002038 0.002485 -0.003573 0.001186 -0.000865 0.006140 0.000462 -0.003658 0.001848 0.009036 -0.001908 0.002512 0.008683 0.006505 0.004859 -0.000438 -0.000085 -0.001780 0.003128 0.005676 0.005573 0.001284 0.007527 0.002538
sent_36 0.102684 -0.022240 -0.024413 0.018002 -0.078513 0.044861 0.011795 -0.006127 -0.036058 0.083067 0.018888 -0.049648 0.037136 0.030078 -0.019279 -0.058485 -0.061630 -0.018258 -0.096724 -0.009337 0.030926 0.030642 0.017656 0.045287 0.037769 0.053784 0.081962 0.023991 -0.039742 0.012675 -0.011191 0.103067 0.032234 -0.013796 0.075474 0.029308 0.028447 0.067886 0.065529 -0.073069 0.046322 -0.055528 -0.110603 -0.010627 0.035126 0.068823 -0.009080 -0.040452 -0.000995 -0.023924 0.011379 -0.090005 0.080417 0.088581 -0.006456 -0.006434 -0.056234 -0.020210 -0.011097 0.082074 -0.056101 0.069987 -0.121484 -0.061454 0.132740 0.099105 -0.029114 -0.053916 0.009225 0.049104 -0.076736 0.056050 0.014877 -0.033428 0.067504 -0.029828 0.036737 -0.001461 -0.056393 -0.023629 0.023480 0.064538 -0.071158 -0.104677 -0.042392 0.074305 0.081937 -0.048930 -0.022244 0.020881 0.022583 -0.006290 0.061497 -0.008303 -0.023643 0.049823 -0.045661 0.025721 0.022783 0.054681
sent_37 -0.003404 0.003593 0.003557 0.001281 -0.002364 0.002925 0.002115 -0.007126 -0.000059 -0.000521 -0.000982 -0.003411 -0.003370 0.002872 0.004713 -0.001060 -0.006122 -0.003147 -0.000992 0.001949 0.002269 0.009735 0.002150 -0.003021 0.009055 0.005152 -0.000621 -0.002878 0.003009 -0.000676 0.001510 0.003270 -0.003062 -0.003343 0.000625 0.005791 -0.000561 -0.002109 0.006111 -0.001776 0.004053 0.005720 0.000900 0.000083 -0.002681 0.004507 -0.005927 -0.003152 -0.002445 0.000216 0.010045 -0.012313 0.000255 0.009097 0.002635 -0.002781 0.002615 -0.002845 -0.004744 0.004196 0.002930 -0.001325 0.000630 -0.003328 0.012679 -0.000555 0.000418 -0.002342 -0.002392 -0.002416 -0.002131 0.005227 -0.004585 -0.004732 -0.001870 0.000194 0.003021 0.005234 -0.008265 0.002663 0.001508 0.000147 0.002605 0.000033 -0.006464 -0.005187 0.005578 -0.004087 -0.002764 -0.000439 0.000532 -0.003065 0.005712 -0.004105 0.002416 0.004040 -0.001694 0.003788 0.004241 0.001304
sent_38 0.027324 -0.004497 0.006191 0.008728 -0.000155 0.050955 0.020688 -0.031567 -0.024727 0.029979 -0.003618 -0.034596 -0.011553 0.017186 0.020610 -0.027782 -0.042932 0.023067 -0.019506 0.007194 0.012714 0.036704 0.017132 0.012320 0.041425 0.016377 0.026893 0.002645 -0.016828 0.029855 -0.000918 0.030402 0.016506 -0.014391 0.046628 0.017240 0.006712 0.036187 0.036219 -0.044832 0.024398 0.005651 -0.042681 -0.017804 -0.009659 0.040910 -0.006680 -0.011486 0.015963 -0.021666 0.039748 -0.036807 0.024612 0.047274 0.010050 -0.009447 -0.012014 -0.008090 -0.005080 0.031545 -0.002771 0.032678 -0.057163 -0.017865 0.073770 0.064688 0.000686 -0.017604 -0.025099 -0.002609 -0.017967 0.008704 0.013214 -0.037924 0.030849 -0.032641 0.023392 0.000605 -0.036296 -0.018203 0.021486 0.015230 -0.012628 0.004132 -0.019240 0.016174 0.037765 -0.007056 -0.006982 0.010340 -0.007012 0.004157 0.030280 0.003968 0.015725 0.033737 -0.003029 0.008325 0.024881 0.031034
sent_39 0.008805 0.002853 -0.000118 0.003838 0.001434 0.017307 -0.010948 -0.017367 -0.008815 0.005187 0.007904 -0.020064 0.000049 0.013209 0.004901 -0.008826 -0.019873 0.002667 -0.002400 0.002923 0.011027 0.014462 0.014888 0.002806 0.011129 0.011149 -0.000657 -0.000913 -0.002328 0.013311 -0.006568 0.013650 0.017263 -0.005911 0.006595 0.004882 0.002688 0.010160 0.012595 -0.019052 0.009750 0.005845 -0.015822 -0.005899 -0.006099 0.018696 -0.012114 -0.004330 0.003743 -0.011305 0.019718 -0.017704 0.003489 0.003118 0.001648 0.002530 0.005466 -0.011631 -0.007114 0.014476 0.013943 0.000584 -0.009257 -0.002014 0.028929 0.013365 -0.004003 -0.007767 -0.004400 -0.006053 -0.010084 0.006521 0.002538 -0.013021 0.002538 -0.001400 0.002779 0.003026 -0.011304 -0.007586 0.006287 0.015342 0.005467 -0.016241 -0.011277 0.007397 0.015996 -0.006582 0.005928 0.005661 0.002045 0.010178 -0.001782 0.007214 0.003208 0.020236 0.009198 -0.001876 0.007553 0.013282
sent_40 0.015222 0.001996 0.008812 -0.000334 -0.014526 0.037255 -0.020821 -0.024436 -0.013708 0.020719 0.023459 -0.018551 0.005060 -0.000381 0.017774 0.002748 -0.025969 0.017113 -0.001488 0.010289 0.000433 0.022866 0.008790 0.015527 0.024571 0.021710 0.015957 -0.007716 -0.018382 0.001387 -0.006665 0.000892 0.008511 0.005478 0.020189 0.010477 -0.009584 0.026015 0.020483 -0.017900 0.009840 -0.012940 -0.027549 -0.004985 0.013112 0.039716 -0.003231 -0.000595 -0.015534 -0.002344 0.041133 -0.056288 0.021586 0.050205 -0.009549 -0.008607 -0.019405 0.008096 -0.003253 0.030414 0.019336 0.000669 -0.018650 -0.035016 0.050452 0.009007 0.001031 -0.015744 -0.025843 0.002070 -0.009490 -0.001753 0.010906 -0.005734 0.002067 -0.009930 0.008049 0.015064 -0.027162 -0.009235 0.006255 -0.008382 -0.013506 -0.014045 -0.028939 0.020103 0.033440 -0.033820 -0.022920 -0.000858 -0.002386 -0.005401 0.031897 -0.011297 -0.007891 0.026151 -0.001883 0.000441 -0.008169 -0.006186
sent_41 0.034118 -0.025150 -0.013510 -0.009905 -0.002771 0.108054 -0.004004 -0.055310 -0.031710 0.057934 -0.031982 -0.132119 0.018683 0.045788 0.009521 -0.058067 -0.063651 0.021096 -0.023825 -0.013391 0.044446 0.081325 0.038139 0.030076 0.073158 0.052066 0.073006 -0.001059 -0.011150 0.021857 -0.042012 0.044401 0.060583 0.010555 0.029537 0.010368 -0.021734 0.031244 0.057884 -0.078363 0.045142 -0.002865 -0.068674 0.012842 -0.027575 0.061818 -0.028976 -0.001451 0.002262 -0.073841 0.022094 -0.087552 0.058235 0.044982 0.057529 0.006704 0.037758 -0.022625 -0.013611 0.087329 -0.014823 0.023736 -0.067379 -0.021666 0.117228 0.071121 -0.004165 -0.054581 0.007775 -0.019101 -0.043498 0.011542 -0.001962 -0.059801 0.068001 0.002259 0.010698 0.016238 -0.047314 -0.070942 0.016327 0.026400 0.035290 -0.082995 -0.011775 0.065714 0.077242 -0.040804 -0.003354 0.030920 -0.023706 0.006840 0.039029 0.009876 -0.010590 0.075504 -0.005153 0.056716 0.049466 0.094895
sent_42 0.036734 -0.003689 -0.019849 0.009140 -0.016792 0.073645 -0.008771 -0.025838 -0.015150 0.036190 -0.000190 -0.050689 0.005857 0.030178 0.008746 -0.039359 -0.053406 0.004442 -0.033202 -0.010478 0.044703 0.052685 0.018142 0.049295 0.041157 0.024100 0.043464 0.016556 -0.019261 0.024804 0.013998 0.032636 0.027900 -0.010471 0.060961 0.016373 0.028158 0.034148 0.066129 -0.063459 0.045715 -0.008981 -0.075057 -0.014821 0.022755 0.065800 -0.030682 -0.022898 -0.016243 -0.035745 0.075286 -0.078690 0.062768 0.053069 0.022302 -0.028683 -0.023075 -0.005974 0.014289 0.071207 0.005101 0.016536 -0.082362 -0.027962 0.123556 0.083636 0.005311 -0.028882 -0.009921 0.007303 -0.050741 0.024996 0.017817 -0.007294 0.051332 -0.014778 0.026259 0.020780 -0.046498 -0.022592 0.010862 0.041757 -0.014295 -0.025695 -0.030876 0.042851 0.061850 -0.056366 -0.004406 0.010985 -0.000614 0.019806 0.032031 0.008329 0.006615 0.079162 -0.020675 0.024190 0.038276 0.007277
sent_43 0.119863 -0.031716 -0.048912 0.026104 -0.042454 0.032561 0.039055 0.024103 -0.035354 0.084212 -0.020404 -0.048881 0.016135 0.039752 -0.033702 -0.090980 -0.065230 -0.028251 -0.088812 -0.011082 0.039213 0.021755 0.010000 0.043974 0.016878 0.037361 0.075533 0.037703 -0.029083 0.011241 0.020664 0.107842 0.020985 -0.033472 0.094061 0.033272 0.064096 0.040567 0.053037 -0.067512 0.028220 -0.060444 -0.125945 -0.021406 0.002762 0.060643 -0.029323 -0.043693 0.019780 -0.033249 0.002631 -0.044039 0.070512 0.041387 0.026293 -0.020987 -0.038837 -0.041252 0.014715 0.075815 -0.066427 0.091170 -0.136621 -0.025413 0.121503 0.146572 -0.025827 -0.050392 0.033710 0.060124 -0.078109 0.063170 0.002198 -0.031893 0.085462 -0.032135 0.038222 -0.011106 -0.056756 -0.036632 0.024648 0.108477 -0.071430 -0.073678 -0.023278 0.075333 0.062565 -0.034199 -0.011824 0.037813 0.015945 -0.001060 0.030382 -0.006152 0.022324 0.043018 -0.024035 0.032975 0.055970 0.074849
sent_44 0.056521 -0.007052 -0.043505 0.045735 -0.076230 0.052099 0.077127 -0.069881 -0.088815 0.080250 0.027514 -0.052375 -0.004456 0.049634 0.022594 -0.003578 -0.094700 0.020513 -0.067731 0.021840 0.010343 0.041954 0.004409 0.049784 0.048414 -0.023363 0.096061 0.027033 -0.011157 0.029377 -0.037867 0.056164 0.054615 -0.054049 0.070150 -0.005732 -0.035914 0.085462 0.068614 -0.063751 0.023585 -0.048600 -0.097097 -0.076885 0.032655 0.080889 0.037401 0.024923 -0.022651 -0.031308 -0.001757 -0.081688 0.059359 0.136966 0.026069 0.015471 -0.030412 -0.028566 -0.070001 0.047207 -0.051412 0.086453 -0.158312 -0.063288 0.130181 0.111959 -0.015683 -0.020981 0.005502 0.047275 -0.023207 0.074489 0.019578 -0.120182 0.091892 -0.060109 0.042178 -0.003421 -0.074416 -0.042447 -0.000124 -0.036837 -0.070911 -0.095167 -0.065971 -0.023277 0.089079 -0.021873 -0.054264 0.054654 -0.007122 -0.018531 0.092165 -0.008520 -0.042504 0.055391 -0.085616 0.024331 0.004743 0.071873
sent_45 0.020231 -0.006797 -0.000341 0.002908 -0.005951 -0.004690 0.013194 -0.013888 -0.019061 0.019666 -0.000992 -0.013705 0.001202 0.002535 -0.009043 -0.003505 -0.009298 0.006307 -0.012727 0.004755 -0.003756 -0.006201 -0.007189 -0.006820 0.004196 0.011810 0.019174 -0.010609 0.004867 0.003054 -0.014141 0.030902 0.006130 -0.011749 -0.003758 -0.012005 -0.004877 0.015550 0.003414 -0.010288 0.005304 -0.005619 -0.007335 -0.002844 0.001698 0.009753 0.016752 -0.003048 0.007630 -0.009051 -0.005659 -0.008355 0.006237 0.023686 0.004088 0.012267 -0.006182 0.001765 -0.011212 0.001204 -0.012937 0.008783 -0.016460 -0.025099 0.027874 0.016829 -0.001863 0.000249 0.005126 0.004921 0.007649 0.002271 -0.000412 -0.033646 0.001891 -0.013294 -0.005049 -0.015297 -0.005963 -0.008003 -0.007927 -0.008033 -0.020196 -0.018371 -0.006061 0.003611 0.017811 0.011311 -0.015963 -0.004505 0.014094 0.000024 0.019393 0.002355 -0.018643 0.003756 -0.008635 -0.001135 -0.010867 0.029336
sent_46 0.090845 -0.006572 0.012786 0.001814 -0.048151 0.129651 -0.051011 -0.081082 -0.055215 0.087106 0.046262 -0.096407 0.020807 0.028370 0.046851 -0.056941 -0.104362 0.037036 -0.038708 0.006220 0.038703 0.090961 0.050871 0.051250 0.100985 0.127909 0.040265 -0.006224 -0.060436 0.010822 -0.051011 0.097337 0.070395 0.000837 0.075614 0.055027 -0.010819 0.096710 0.099009 -0.091595 0.071154 -0.047862 -0.117844 -0.004928 -0.003618 0.119667 -0.013416 -0.056166 -0.012421 -0.047974 0.111062 -0.171058 0.081529 0.136220 -0.005315 -0.007517 -0.019721 0.009128 -0.007318 0.107443 0.027719 0.031988 -0.074642 -0.085323 0.219887 0.091953 -0.006971 -0.059320 -0.068124 0.012328 -0.065077 0.037106 0.028444 -0.031384 0.037701 -0.020298 0.034497 0.041829 -0.079952 -0.044863 0.020365 0.048353 -0.027158 -0.092230 -0.082447 0.086606 0.105278 -0.076367 -0.021986 0.012428 0.023262 0.003341 0.056402 -0.004586 -0.013472 0.102214 0.016157 0.009626 0.013215 0.030268
sent_47 0.170327 -0.081129 0.027260 -0.013510 -0.042875 0.117675 0.117060 0.057676 0.014532 0.134285 -0.098975 -0.059860 0.009514 -0.018790 -0.076927 -0.137845 -0.033397 0.077775 -0.115804 -0.048765 0.058628 0.034167 -0.003955 0.079494 0.050348 0.033978 0.147468 0.010455 -0.009963 0.031437 0.078252 0.091893 -0.049853 -0.006150 0.178244 0.000530 0.116864 0.069693 0.097123 -0.140645 0.120359 0.031498 -0.139941 -0.010401 0.044259 0.041396 -0.010891 -0.076465 0.059664 -0.051110 0.087388 -0.061255 0.091025 0.143897 0.038277 -0.103751 -0.145312 0.016216 0.122896 0.143110 -0.082714 0.117768 -0.244495 -0.076121 0.203659 0.234286 0.013103 -0.098466 0.026198 0.035494 -0.061500 -0.027480 0.067806 -0.056775 0.094762 -0.087237 0.023248 -0.061501 -0.042824 -0.012235 0.046622 0.084295 -0.124439 0.120580 0.004224 0.127041 0.113870 -0.056304 -0.037467 -0.032840 -0.017615 0.009013 0.072227 -0.019812 0.052475 0.093805 -0.068576 0.019350 0.067685 0.056791
sent_48 -0.005071 0.003197 -0.005044 0.002827 -0.000413 0.008167 0.007601 -0.009696 -0.001178 -0.002494 -0.000406 0.000966 -0.002807 0.000758 0.011736 -0.001435 -0.012695 0.002600 -0.005834 0.004777 0.005423 0.011627 0.004795 0.001124 -0.000733 -0.003933 -0.002886 0.005232 -0.003286 0.002685 0.002719 -0.004796 0.003435 -0.003389 0.004048 0.002392 -0.002892 0.004476 0.001849 -0.003159 -0.002037 0.006305 -0.004872 -0.005204 -0.002994 0.004659 -0.000658 0.003881 0.001085 0.003135 0.008046 -0.007701 0.000161 0.001015 0.002526 -0.003790 -0.003427 -0.001587 -0.001489 -0.000568 0.002972 -0.001313 -0.012065 0.001536 0.009592 0.012974 0.003234 0.003855 -0.005257 -0.001881 -0.005392 0.002976 -0.000849 -0.003725 0.002247 -0.007887 0.008597 -0.002885 -0.007540 0.005196 0.000382 -0.000398 -0.005015 0.008719 -0.008750 -0.007415 0.002787 0.002335 -0.001569 0.003850 -0.003108 0.001648 0.008572 -0.000462 0.001467 0.007400 -0.003221 -0.001125 0.008632 0.000525
sent_49 0.135419 -0.057069 -0.029951 0.000922 -0.064475 0.153122 0.099451 0.030332 -0.020480 0.136442 -0.058591 -0.082822 -0.002563 0.015027 -0.051842 -0.120991 -0.098378 0.068542 -0.103573 -0.050642 0.061756 0.064205 0.007259 0.111455 0.082027 0.010452 0.170943 0.039037 -0.020033 0.065309 0.062026 0.094406 0.021006 -0.016956 0.170084 -0.005083 0.079014 0.096377 0.139906 -0.146787 0.105148 -0.009277 -0.174313 -0.041065 0.074114 0.083330 -0.008157 -0.044831 0.015403 -0.071935 0.110943 -0.119234 0.128151 0.176003 0.058005 -0.089365 -0.113532 0.010895 0.075582 0.141149 -0.068644 0.111037 -0.271608 -0.056267 0.227301 0.247723 0.004509 -0.083316 0.007023 0.041626 -0.081953 0.026478 0.075386 -0.062293 0.125863 -0.100360 0.044018 -0.026865 -0.058398 -0.041844 0.041087 0.073637 -0.103551 0.031650 -0.038938 0.109125 0.123591 -0.082418 -0.033840 -0.008525 -0.036199 0.040374 0.098971 -0.000017 0.036343 0.136783 -0.093566 0.036947 0.076682 0.051222
sent_50 0.214503 -0.057670 0.016164 0.014081 -0.098769 0.157737 0.093064 -0.060474 -0.095002 0.196644 0.001770 -0.118970 -0.014855 0.040207 0.007020 -0.133959 -0.186617 0.079935 -0.153836 -0.018228 0.071034 0.091514 0.055490 0.099814 0.137313 0.112726 0.154447 0.007163 -0.084537 0.100387 -0.024193 0.233113 0.066753 -0.062591 0.191908 0.056968 0.070321 0.176443 0.170105 -0.206123 0.135657 -0.029038 -0.240837 -0.076340 0.021128 0.141414 0.024212 -0.100230 0.072991 -0.095765 0.128719 -0.198439 0.137317 0.264543 0.020662 -0.032972 -0.128715 -0.032947 -0.006349 0.161232 -0.062669 0.156355 -0.285382 -0.137917 0.370681 0.318831 -0.004511 -0.101656 -0.051063 0.032891 -0.100093 0.050984 0.095178 -0.160672 0.139122 -0.134911 0.089048 -0.037863 -0.116752 -0.042886 0.077338 0.113801 -0.151176 -0.046762 -0.098149 0.134423 0.183388 -0.046488 -0.036117 0.018404 0.027252 0.014537 0.116952 -0.009718 0.014571 0.134507 -0.044564 -0.005581 0.046388 0.130988
sent_51 0.069012 -0.031381 0.035336 -0.053852 -0.017682 0.050725 0.012243 0.025706 0.015344 0.046969 -0.042151 -0.075189 0.044354 -0.001689 -0.061268 -0.074177 0.020694 0.028162 -0.052030 -0.047391 0.027413 0.015499 0.004825 0.024480 0.029263 0.066665 0.068575 -0.012518 0.007175 0.009705 -0.007487 0.077847 -0.004331 0.040786 0.013749 -0.009712 0.021712 0.022660 0.036312 -0.065365 0.064521 0.020817 -0.032149 0.050793 0.019797 -0.001929 0.008065 -0.057836 0.010987 -0.034771 0.019849 -0.059018 0.053030 0.058737 0.025473 -0.012067 -0.044036 0.026049 0.058747 0.075807 -0.041649 0.008223 -0.052620 -0.037620 0.093094 0.038225 -0.000815 -0.048741 0.029796 -0.016875 -0.032831 -0.028550 0.021431 -0.021305 0.021030 -0.004023 -0.028223 -0.031941 0.005334 -0.012657 -0.000023 0.028002 -0.015277 -0.016643 0.032694 0.099784 0.059685 -0.033434 0.006925 -0.053286 0.022096 0.012293 0.027993 -0.000675 -0.016443 0.038321 -0.004434 0.017372 0.000590 0.047643
sent_52 0.079564 -0.017452 0.052552 -0.018022 -0.045364 0.049717 0.001601 -0.024515 -0.003935 0.078900 0.019808 -0.026377 -0.005657 -0.012667 0.003713 -0.042325 -0.060823 0.028322 -0.038505 0.000479 0.014108 0.031217 0.031791 0.033348 0.057963 0.070017 0.035575 -0.012991 -0.045570 0.035857 -0.023983 0.090081 0.019760 0.003779 0.052926 0.046044 0.018236 0.085431 0.059779 -0.065701 0.047916 -0.009935 -0.078419 -0.005005 0.010226 0.034280 0.024150 -0.040118 0.020999 -0.018360 0.057030 -0.089778 0.042350 0.122101 -0.025842 -0.008595 -0.074937 0.015238 0.010450 0.064156 -0.003209 0.042805 -0.056357 -0.073645 0.124868 0.061612 -0.000953 -0.045695 -0.055867 0.000639 -0.044811 -0.002087 0.060789 -0.031899 0.008345 -0.049270 0.025417 -0.011560 -0.017352 -0.010577 0.034609 0.034279 -0.053866 -0.001633 -0.037431 0.076311 0.065864 -0.013148 -0.006836 -0.016726 0.011432 -0.011658 0.048969 -0.012342 -0.004533 0.015694 0.003623 -0.024417 -0.005723 0.020394
sent_53 0.115725 -0.004680 -0.117868 0.063116 -0.134861 0.133417 0.006583 -0.037632 -0.066201 0.117565 0.046837 -0.074553 0.064998 0.108279 -0.002656 -0.070759 -0.139917 -0.018705 -0.173678 -0.030247 0.093717 0.096710 0.020348 0.144151 0.059963 0.019885 0.187431 0.060883 -0.048120 0.050070 0.057861 0.163049 0.069142 -0.071249 0.144990 0.006541 0.094787 0.100581 0.181483 -0.146827 0.118906 -0.096763 -0.214793 -0.057759 0.165036 0.196380 -0.007927 -0.059286 -0.087506 -0.073328 0.170292 -0.235409 0.181603 0.180074 0.025924 -0.075318 -0.123110 -0.019168 0.016317 0.150581 -0.024826 0.060965 -0.261816 -0.093473 0.325913 0.233496 -0.008792 -0.051639 0.024785 0.095494 -0.123435 0.107188 0.032588 -0.023165 0.125542 -0.087719 0.058602 0.048619 -0.147530 0.011764 0.019245 0.106384 -0.138925 -0.149894 -0.128834 0.098849 0.156778 -0.170580 -0.023422 0.029499 0.056564 0.086635 0.118784 0.029289 -0.060373 0.221474 -0.102355 0.053308 0.018531 0.015544
sent_54 0.099807 -0.024370 0.023972 0.020104 -0.050857 0.119018 0.028774 -0.069124 -0.051055 0.098441 0.017506 -0.041688 -0.010940 -0.008136 0.037743 -0.042717 -0.090788 0.056856 -0.049848 0.031927 0.020895 0.074627 0.029804 0.047253 0.081584 0.053797 0.074206 -0.005783 -0.047808 0.032154 -0.007891 0.041029 -0.001298 -0.022956 0.113878 0.033696 0.009594 0.099792 0.081036 -0.094233 0.062670 -0.005417 -0.105725 -0.042090 0.018508 0.091976 -0.006955 -0.026509 0.000002 -0.034265 0.109045 -0.115810 0.065661 0.170282 -0.009837 -0.031321 -0.077232 0.006552 0.008072 0.105781 -0.003547 0.068313 -0.139970 -0.109562 0.192665 0.122637 0.007180 -0.061473 -0.062006 0.019879 -0.035362 0.004979 0.052412 -0.060638 0.048046 -0.067077 0.042950 -0.006359 -0.070256 -0.027535 0.034422 0.006940 -0.070461 0.010657 -0.079388 0.049574 0.108780 -0.063447 -0.066329 0.006558 -0.013790 -0.019411 0.096386 -0.021608 0.007052 0.073935 -0.034858 -0.002170 0.014262 0.013333
sent_55 0.020893 -0.004929 -0.008870 -0.000131 -0.018101 0.024898 0.021009 0.015758 0.009429 0.019231 -0.005788 -0.001494 0.000649 -0.002322 -0.012665 -0.021396 -0.010678 0.010943 -0.020115 -0.016324 0.010713 0.012957 -0.006071 0.029242 0.009404 -0.008972 0.032262 0.018620 -0.002289 0.010316 0.024607 0.007987 -0.003670 -0.004691 0.040511 -0.003968 0.017737 0.011254 0.021272 -0.017665 0.020759 -0.005267 -0.032961 -0.008689 0.031390 0.009790 -0.000232 -0.004570 -0.007430 -0.002794 0.024074 -0.023014 0.024356 0.025886 0.001268 -0.030590 -0.033346 0.000492 0.019038 0.024225 -0.012633 0.019265 -0.051303 -0.009896 0.026477 0.043269 0.003111 -0.019240 -0.003045 0.012658 -0.023806 0.004393 0.015790 0.008789 0.030272 -0.022998 0.013457 -0.000268 -0.007195 -0.006229 0.011048 0.019529 -0.019393 0.010919 -0.005397 0.014899 0.017649 -0.027391 -0.003470 0.003388 -0.005637 0.006898 0.021603 -0.005648 0.008379 0.022466 -0.032548 0.011109 0.016265 -0.005292
sent_56 0.000351 0.001765 0.002852 -0.002389 -0.002243 0.001052 0.001742 -0.004964 0.003557 -0.003551 0.000124 0.000622 -0.004928 -0.000711 0.000337 0.001907 0.004032 -0.004314 -0.002169 0.000279 -0.002098 -0.000799 0.004821 -0.004431 0.004289 0.001680 -0.000014 -0.000353 0.000589 -0.002084 -0.003282 0.001197 0.004885 0.000162 0.001710 0.000195 -0.003000 0.000787 0.004579 0.001924 -0.004727 -0.001369 0.001339 0.000671 -0.003787 0.004365 -0.001062 0.002293 0.002857 -0.002870 0.001626 0.000234 -0.003217 0.002184 0.000406 -0.002859 -0.000819 0.001808 0.004938 0.000484 0.002939 -0.001694 0.000116 0.003350 0.004705 -0.003215 0.003513 0.004884 -0.000495 -0.001920 0.004125 -0.002801 0.004883 -0.000985 -0.004078 -0.003632 -0.000229 -0.004391 -0.002481 0.002950 0.002853 0.003108 -0.004537 0.002664 0.003068 -0.004840 -0.001087 0.003656 0.004585 0.004196 0.000470 -0.001901 0.000893 0.000960 0.001646 0.000908 0.003681 -0.001260 -0.002560 -0.004795
